{"learner":{"attributes":{"scikit_learn":"{\"_estimator_type\": \"regressor\"}"},"feature_names":["Lag_1","Lag_2","Lag_3","Rolling_Mean_3","Month","Quarter","Season"],"feature_types":["float","float","float","float","int","int","int"],"gradient_booster":{"model":{"cats":{"enc":[],"feature_segments":[],"sorted_idx":[]},"gbtree_model_param":{"num_parallel_tree":"1","num_trees":"100"},"iteration_indptr":[0,1,2,3,4,5,6,7,8,9,10,11,12,13,14,15,16,17,18,19,20,21,22,23,24,25,26,27,28,29,30,31,32,33,34,35,36,37,38,39,40,41,42,43,44,45,46,47,48,49,50,51,52,53,54,55,56,57,58,59,60,61,62,63,64,65,66,67,68,69,70,71,72,73,74,75,76,77,78,79,80,81,82,83,84,85,86,87,88,89,90,91,92,93,94,95,96,97,98,99,100],"tree_info":[0,0,0,0,0,0,0,0,0,0,0,0,0,0,0,0,0,0,0,0,0,0,0,0,0,0,0,0,0,0,0,0,0,0,0,0,0,0,0,0,0,0,0,0,0,0,0,0,0,0,0,0,0,0,0,0,0,0,0,0,0,0,0,0,0,0,0,0,0,0,0,0,0,0,0,0,0,0,0,0,0,0,0,0,0,0,0,0,0,0,0,0,0,0,0,0,0,0,0,0],"trees":[{"base_weights":[1.6891892E-3,-1.1096022E4,2.133851E4,-1.2173251E4,7.378732E2,3.673666E3,2.8781365E4,-9.025527E2,-1.8528365E3,1.4705033E3,-8.582256E2,7.738541E2,3.0444402E3],"categories":[],"categories_nodes":[],"categories_segments":[],"categories_sizes":[],"default_left":[0,0,0,0,0,0,0,0,0,0,0,0,0],"id":0,"left_children":[1,3,5,7,-1,9,11,-1,-1,-1,-1,-1,-1],"loss_changes":[8.997358E9,5.8736154E8,1.6034668E9,3.1287168E8,0E0,8.022002E8,7.935949E7,0E0,0E0,0E0,0E0,0E0,0E0],"parents":[2147483647,0,0,1,1,2,2,3,3,5,5,6,6],"right_children":[2,4,6,8,-1,10,12,-1,-1,-1,-1,-1,-1],"split_conditions":[9E0,8.162352E4,4.7507535E4,5.958303E4,7.378732E2,3.832078E4,3.1011738E4,-9.025527E2,-1.8528365E3,1.4705033E3,-8.582256E2,7.738541E2,3.0444402E3],"split_indices":[4,2,3,1,0,0,1,0,0,0,0,0,0],"split_type":[0,0,0,0,0,0,0,0,0,0,0,0,0],"sum_hessian":[3.6E1,2.4E1,1.2E1,2.3E1,1E0,4E0,8E0,1.7E1,6E0,2E0,2E0,1E0,7E0],"tree_param":{"num_deleted":"0","num_feature":"7","num_nodes":"13","size_leaf_vector":"1"}},{"base_weights":[6.521801E1,-1.0067122E4,1.954547E4,-1.1070735E4,7.009795E2,3.4287551E3,2.6327482E4,-7.6671497E2,-1.5891473E3,1.3724696E3,-8.010105E2,7.351613E2,2.7780515E3],"categories":[],"categories_nodes":[],"categories_segments":[],"categories_sizes":[],"default_left":[0,0,0,0,0,0,0,0,0,0,0,0,0],"id":1,"left_children":[1,3,5,7,-1,9,11,-1,-1,-1,-1,-1,-1],"loss_changes":[7.499847E9,5.0606925E8,1.3306783E9,2.7194445E8,0E0,6.988054E8,4.392141E7,0E0,0E0,0E0,0E0,0E0,0E0],"parents":[2147483647,0,0,1,1,2,2,3,3,5,5,6,6],"right_children":[2,4,6,8,-1,10,12,-1,-1,-1,-1,-1,-1],"split_conditions":[9E0,8.162352E4,4.7507535E4,5.5205797E4,7.009795E2,3.832078E4,3.1011738E4,-7.6671497E2,-1.5891473E3,1.3724696E3,-8.010105E2,7.351613E2,2.7780515E3],"split_indices":[4,2,3,1,0,0,1,0,0,0,0,0,0],"split_type":[0,0,0,0,0,0,0,0,0,0,0,0,0],"sum_hessian":[3.6E1,2.4E1,1.2E1,2.3E1,1E0,4E0,8E0,1.5E1,8E0,2E0,2E0,1E0,7E0],"tree_param":{"num_deleted":"0","num_feature":"7","num_nodes":"13","size_leaf_vector":"1"}},{"base_weights":[1.2436666E2,-9.1266045E3,1.790513E4,-1.0061822E4,6.659305E2,3.2001724E3,2.4085092E4,-7.357616E2,-1.5578093E3,1.2809718E3,-7.4760974E2,6.984033E2,2.5349722E3],"categories":[],"categories_nodes":[],"categories_segments":[],"categories_sizes":[],"default_left":[0,0,0,0,0,0,0,0,0,0,0,0,0],"id":2,"left_children":[1,3,5,7,-1,9,11,-1,-1,-1,-1,-1,-1],"loss_changes":[6.2495186E9,4.3608614E8,1.1043128E9,2.433938E8,0E0,6.0873715E8,1.759488E7,0E0,0E0,0E0,0E0,0E0,0E0],"parents":[2147483647,0,0,1,1,2,2,3,3,5,5,6,6],"right_children":[2,4,6,8,-1,10,12,-1,-1,-1,-1,-1,-1],"split_conditions":[9E0,8.162352E4,4.7507535E4,5.958303E4,6.659305E2,3.832078E4,3.1011738E4,-7.357616E2,-1.5578093E3,1.2809718E3,-7.4760974E2,6.984033E2,2.5349722E3],"split_indices":[4,2,3,1,0,0,1,0,0,0,0,0,0],"split_type":[0,0,0,0,0,0,0,0,0,0,0,0,0],"sum_hessian":[3.6E1,2.4E1,1.2E1,2.3E1,1E0,4E0,8E0,1.7E1,6E0,2E0,2E0,1E0,7E0],"tree_param":{"num_deleted":"0","num_feature":"7","num_nodes":"13","size_leaf_vector":"1"}},{"base_weights":[1.6974324E2,-8.27905E3,1.6404365E4,-9.151205E3,6.32634E2,2.986827E3,2.2035847E3,-6.66273E2,-1.4242828E3,1.1955736E3,-6.977691E2],"categories":[],"categories_nodes":[],"categories_segments":[],"categories_sizes":[],"default_left":[0,0,0,0,0,0,0,0,0,0,0],"id":3,"left_children":[1,3,5,7,-1,9,-1,-1,-1,-1,-1],"loss_changes":[5.210842E9,3.763479E8,9.164705E8,2.0919309E8,0E0,5.3027766E8,0E0,0E0,0E0,0E0,0E0],"parents":[2147483647,0,0,1,1,2,2,3,3,5,5],"right_children":[2,4,6,8,-1,10,-1,-1,-1,-1,-1],"split_conditions":[9E0,8.162352E4,4.7507535E4,5.958303E4,6.32634E2,3.832078E4,2.2035847E3,-6.66273E2,-1.4242828E3,1.1955736E3,-6.977691E2],"split_indices":[4,2,3,1,0,0,0,0,0,0,0],"split_type":[0,0,0,0,0,0,0,0,0,0,0],"sum_hessian":[3.6E1,2.4E1,1.2E1,2.3E1,1E0,4E0,8E0,1.7E1,6E0,2E0,2E0],"tree_param":{"num_deleted":"0","num_feature":"7","num_nodes":"11","size_leaf_vector":"1"}},{"base_weights":[1.8637584E2,-7.509462E3,1.4971728E4,-8.323191E3,6.010024E2,2.787705E3,2.0077104E4,-8.9370087E2,2.897299E2,1.1158687E3,-6.5125116E2,5.533039E2,2.1203481E3],"categories":[],"categories_nodes":[],"categories_segments":[],"categories_sizes":[],"default_left":[0,0,0,0,0,0,0,0,0,0,0,0,0],"id":4,"left_children":[1,3,5,7,-1,9,11,-1,-1,-1,-1,-1,-1],"loss_changes":[4.3224996E9,3.250528E8,7.5268275E8,1.91189E8,0E0,4.6193072E8,3.0119424E7,0E0,0E0,0E0,0E0,0E0,0E0],"parents":[2147483647,0,0,1,1,2,2,3,3,5,5,6,6],"right_children":[2,4,6,8,-1,10,12,-1,-1,-1,-1,-1,-1],"split_conditions":[9E0,8.162352E4,4.7507535E4,7.52494E4,6.010024E2,3.832078E4,3.1011738E4,-8.9370087E2,2.897299E2,1.1158687E3,-6.5125116E2,5.533039E2,2.1203481E3],"split_indices":[4,2,3,0,0,0,1,0,0,0,0,0,0],"split_type":[0,0,0,0,0,0,0,0,0,0,0,0,0],"sum_hessian":[3.6E1,2.4E1,1.2E1,2.3E1,1E0,4E0,8E0,2.2E1,1E0,2E0,2E0,1E0,7E0],"tree_param":{"num_deleted":"0","num_feature":"7","num_nodes":"13","size_leaf_vector":"1"}},{"base_weights":[2.5247519E2,-6.758636E3,1.371596E4,-3.8422712E3,-1.1516365E4,2.6018582E3,1.8366465E4,-6.2169073E2,9.311667E2,-1.364402E3,2.7524338E2,1.0414774E3,-6.078344E2,5.256387E2,1.9348177E3],"categories":[],"categories_nodes":[],"categories_segments":[],"categories_sizes":[],"default_left":[0,0,0,0,0,0,0,0,0,0,0,0,0,0,0],"id":5,"left_children":[1,3,5,7,9,11,13,-1,-1,-1,-1,-1,-1,-1,-1],"loss_changes":[3.5852787E9,3.0263283E8,6.241336E8,5.888986E8,3.107858E8,4.023931E8,1.41312E7,0E0,0E0,0E0,0E0,0E0,0E0,0E0,0E0],"parents":[2147483647,0,0,1,1,2,2,3,3,4,4,5,5,6,6],"right_children":[2,4,6,8,10,12,14,-1,-1,-1,-1,-1,-1,-1,-1],"split_conditions":[9E0,5.5205797E4,4.7507535E4,4.3476473E4,7.52494E4,3.832078E4,3.1011738E4,-6.2169073E2,9.311667E2,-1.364402E3,2.7524338E2,1.0414774E3,-6.078344E2,5.256387E2,1.9348177E3],"split_indices":[4,1,3,1,0,0,1,0,0,0,0,0,0,0,0],"split_type":[0,0,0,0,0,0,0,0,0,0,0,0,0,0,0],"sum_hessian":[3.6E1,2.4E1,1.2E1,1.6E1,8E0,4E0,8E0,1.4E1,2E0,7E0,1E0,2E0,2E0,1E0,7E0],"tree_param":{"num_deleted":"0","num_feature":"7","num_nodes":"15","size_leaf_vector":"1"}},{"base_weights":[2.843747E2,-6.1139595E3,1.2566988E4,-3.8116006E3,-1.1489796E4,2.4284019E3,1.6803203E4,-7.0161053E2,4.3008444E2,-1.4276366E3,2.6148126E2,9.720457E2,-5.673121E2,1.7722992E3,4.7224454E2],"categories":[],"categories_nodes":[],"categories_segments":[],"categories_sizes":[],"default_left":[0,0,0,0,0,0,0,0,0,0,0,0,0,0,0],"id":6,"left_children":[1,3,5,7,9,11,13,-1,-1,-1,-1,-1,-1,-1,-1],"loss_changes":[2.9845998E9,2.6563322E8,5.1753498E8,5.2410618E8,3.124544E8,3.505291E8,1.630976E7,0E0,0E0,0E0,0E0,0E0,0E0,0E0,0E0],"parents":[2147483647,0,0,1,1,2,2,3,3,4,4,5,5,6,6],"right_children":[2,4,6,8,10,12,14,-1,-1,-1,-1,-1,-1,-1,-1],"split_conditions":[9E0,5.958303E4,4.7507535E4,3.760788E4,7.52494E4,3.832078E4,7.45436E4,-7.0161053E2,4.3008444E2,-1.4276366E3,2.6148126E2,9.720457E2,-5.673121E2,1.7722992E3,4.7224454E2],"split_indices":[4,1,3,3,0,0,2,0,0,0,0,0,0,0,0],"split_type":[0,0,0,0,0,0,0,0,0,0,0,0,0,0,0],"sum_hessian":[3.6E1,2.4E1,1.2E1,1.8E1,6E0,4E0,8E0,1.3E1,5E0,5E0,1E0,2E0,2E0,7E0,1E0],"tree_param":{"num_deleted":"0","num_feature":"7","num_nodes":"15","size_leaf_vector":"1"}},{"base_weights":[2.8868213E2,-5.5600713E3,1.1514079E4,-3.0457822E3,-9.691499E3,2.2665083E3,1.5372276E4,-5.132719E2,8.4041644E2,-1.1523954E3,2.4840723E2,9.072426E2,-5.294912E2,7.8091534E2,1.7852313E3],"categories":[],"categories_nodes":[],"categories_segments":[],"categories_sizes":[],"default_left":[0,0,0,0,0,0,0,0,0,0,0,0,0,0,0],"id":7,"left_children":[1,3,5,7,9,11,13,-1,-1,-1,-1,-1,-1,-1,-1],"loss_changes":[2.4932385E9,2.3017184E8,4.2898483E8,4.493566E8,2.2942707E8,3.053497E8,2.9400064E7,0E0,0E0,0E0,0E0,0E0,0E0,0E0,0E0],"parents":[2147483647,0,0,1,1,2,2,3,3,4,4,5,5,6,6],"right_children":[2,4,6,8,10,12,14,-1,-1,-1,-1,-1,-1,-1,-1],"split_conditions":[9E0,5.5205797E4,4.7507535E4,4.3476473E4,7.52494E4,3.832078E4,3.2339318E4,-5.132719E2,8.4041644E2,-1.1523954E3,2.4840723E2,9.072426E2,-5.294912E2,7.8091534E2,1.7852313E3],"split_indices":[4,1,3,1,0,0,1,0,0,0,0,0,0,0,0],"split_type":[0,0,0,0,0,0,0,0,0,0,0,0,0,0,0],"sum_hessian":[3.6E1,2.4E1,1.2E1,1.6E1,8E0,4E0,8E0,1.4E1,2E0,7E0,1E0,2E0,2E0,3E0,5E0],"tree_param":{"num_deleted":"0","num_feature":"7","num_nodes":"15","size_leaf_vector":"1"}},{"base_weights":[3.2378897E2,-5.0271377E3,1.0589125E4,-3.0336914E3,-9.719758E3,2.1154082E3,1.4120177E4,-5.503279E2,4.9818097E2,-1.212634E3,2.3598692E2,8.4675977E2,-4.9419174E2,3.716959E2,1.495596E3],"categories":[],"categories_nodes":[],"categories_segments":[],"categories_sizes":[],"default_left":[0,0,0,0,0,0,0,0,0,0,0,0,0,0,0],"id":8,"left_children":[1,3,5,7,9,11,13,-1,-1,-1,-1,-1,-1,-1,-1],"loss_changes":[2.0856083E9,2.0437536E8,3.5910477E8,4.035209E8,2.3211091E8,2.659935E8,2.2662784E7,0E0,0E0,0E0,0E0,0E0,0E0,0E0,0E0],"parents":[2147483647,0,0,1,1,2,2,3,3,4,4,5,5,6,6],"right_children":[2,4,6,8,10,12,14,-1,-1,-1,-1,-1,-1,-1,-1],"split_conditions":[9E0,5.958303E4,4.7507535E4,3.86883E4,7.52494E4,3.832078E4,3.1011738E4,-5.503279E2,4.9818097E2,-1.212634E3,2.3598692E2,8.4675977E2,-4.9419174E2,3.716959E2,1.495596E3],"split_indices":[4,1,3,3,0,0,1,0,0,0,0,0,0,0,0],"split_type":[0,0,0,0,0,0,0,0,0,0,0,0,0,0,0],"sum_hessian":[3.6E1,2.4E1,1.2E1,1.8E1,6E0,4E0,8E0,1.4E1,4E0,5E0,1E0,2E0,2E0,1E0,7E0],"tree_param":{"num_deleted":"0","num_feature":"7","num_nodes":"15","size_leaf_vector":"1"}},{"base_weights":[3.2360114E2,-4.565575E3,9.700971E3,-2.3890342E3,-8.169533E3,1.9743816E3,1.2915635E4,-4.2099252E2,7.511766E2,-9.751193E2,2.241875E2,7.9030927E2,-4.6124567E2,6.3827454E2,1.5118289E3],"categories":[],"categories_nodes":[],"categories_segments":[],"categories_sizes":[],"default_left":[0,0,0,0,0,0,0,0,0,0,0,0,0,0,0],"id":9,"left_children":[1,3,5,7,9,11,13,-1,-1,-1,-1,-1,-1,-1,-1],"loss_changes":[1.7406523E9,1.7658682E8,2.9739866E8,3.3810467E8,1.7006675E8,2.3170997E8,3.3010944E7,0E0,0E0,0E0,0E0,0E0,0E0,0E0,0E0],"parents":[2147483647,0,0,1,1,2,2,3,3,4,4,5,5,6,6],"right_children":[2,4,6,8,10,12,14,-1,-1,-1,-1,-1,-1,-1,-1],"split_conditions":[9E0,5.5205797E4,4.7507535E4,4.3476473E4,7.52494E4,3.832078E4,3.2339318E4,-4.2099252E2,7.511766E2,-9.751193E2,2.241875E2,7.9030927E2,-4.6124567E2,6.3827454E2,1.5118289E3],"split_indices":[4,1,3,1,0,0,1,0,0,0,0,0,0,0,0],"split_type":[0,0,0,0,0,0,0,0,0,0,0,0,0,0,0],"sum_hessian":[3.6E1,2.4E1,1.2E1,1.6E1,8E0,4E0,8E0,1.4E1,2E0,7E0,1E0,2E0,2E0,3E0,5E0],"tree_param":{"num_deleted":"0","num_feature":"7","num_nodes":"15","size_leaf_vector":"1"}},{"base_weights":[3.4687415E2,-4.1258477E3,8.921579E3,-2.3992883E3,-8.222815E3,1.8427566E3,1.1862973E4,-3.963912E2,7.2666736E2,-1.0303212E3,2.1297813E2,7.37622E2,-4.304959E2,5.90404E2,1.3858431E3],"categories":[],"categories_nodes":[],"categories_segments":[],"categories_sizes":[],"default_left":[0,0,0,0,0,0,0,0,0,0,0,0,0,0,0],"id":10,"left_children":[1,3,5,7,9,11,13,-1,-1,-1,-1,-1,-1,-1,-1],"loss_changes":[1.4558432E9,1.5711248E8,2.4882029E8,3.1615264E8,1.7270611E8,2.0184512E8,2.5196544E7,0E0,0E0,0E0,0E0,0E0,0E0,0E0,0E0],"parents":[2147483647,0,0,1,1,2,2,3,3,4,4,5,5,6,6],"right_children":[2,4,6,8,10,12,14,-1,-1,-1,-1,-1,-1,-1,-1],"split_conditions":[9E0,5.958303E4,4.7507535E4,6.919339E4,7.52494E4,3.832078E4,3.2339318E4,-3.963912E2,7.2666736E2,-1.0303212E3,2.1297813E2,7.37622E2,-4.304959E2,5.90404E2,1.3858431E3],"split_indices":[4,1,3,2,0,0,1,0,0,0,0,0,0,0,0],"split_type":[0,0,0,0,0,0,0,0,0,0,0,0,0,0,0],"sum_hessian":[3.6E1,2.4E1,1.2E1,1.8E1,6E0,4E0,8E0,1.6E1,2E0,5E0,1E0,2E0,2E0,3E0,5E0],"tree_param":{"num_deleted":"0","num_feature":"7","num_nodes":"15","size_leaf_vector":"1"}},{"base_weights":[3.6073584E2,-3.732746E3,8.205067E3,-2.1419773E3,-7.517298E3,1.7199066E3,1.0896261E4,-4.6129694E2,3.9806668E2,-9.444611E2,2.023293E2,6.8844727E2,-4.0179617E2,5.4612384E2,1.2703566E3],"categories":[],"categories_nodes":[],"categories_segments":[],"categories_sizes":[],"default_left":[0,0,0,0,0,0,0,0,0,0,0,0,0,0,0],"id":11,"left_children":[1,3,5,7,9,11,13,-1,-1,-1,-1,-1,-1,-1,-1],"loss_changes":[1.2187208E9,1.3440682E8,2.0814605E8,3.0581376E8,1.478232E8,1.7582954E8,1.9027456E7,0E0,0E0,0E0,0E0,0E0,0E0,0E0,0E0],"parents":[2147483647,0,0,1,1,2,2,3,3,4,4,5,5,6,6],"right_children":[2,4,6,8,10,12,14,-1,-1,-1,-1,-1,-1,-1,-1],"split_conditions":[9E0,5.958303E4,4.7507535E4,3.760788E4,7.52494E4,3.832078E4,3.2339318E4,-4.6129694E2,3.9806668E2,-9.444611E2,2.023293E2,6.8844727E2,-4.0179617E2,5.4612384E2,1.2703566E3],"split_indices":[4,1,3,3,0,0,1,0,0,0,0,0,0,0,0],"split_type":[0,0,0,0,0,0,0,0,0,0,0,0,0,0,0],"sum_hessian":[3.6E1,2.4E1,1.2E1,1.8E1,6E0,4E0,8E0,1.3E1,5E0,5E0,1E0,2E0,2E0,3E0,5E0],"tree_param":{"num_deleted":"0","num_feature":"7","num_nodes":"15","size_leaf_vector":"1"}},{"base_weights":[3.5973682E2,-3.3916858E3,7.546339E3,-1.6578007E3,-6.289948E3,1.6052473E3,1.0008464E4,-3.2395016E2,6.803305E2,-7.556724E2,1.9221289E2,6.4255096E2,-3.750097E2,1.0644355E3,2.460666E2],"categories":[],"categories_nodes":[],"categories_segments":[],"categories_sizes":[],"default_left":[0,0,0,0,0,0,0,0,0,0,0,0,0,0,0],"id":12,"left_children":[1,3,5,7,9,11,13,-1,-1,-1,-1,-1,-1,-1,-1],"loss_changes":[1.0231142E9,1.1520387E8,1.7409414E8,2.4954928E8,1.0815075E8,1.5316709E8,1.7004032E7,0E0,0E0,0E0,0E0,0E0,0E0,0E0,0E0],"parents":[2147483647,0,0,1,1,2,2,3,3,4,4,5,5,6,6],"right_children":[2,4,6,8,10,12,14,-1,-1,-1,-1,-1,-1,-1,-1],"split_conditions":[9E0,5.5205797E4,4.7507535E4,6.919339E4,7.52494E4,3.832078E4,7.45436E4,-3.2395016E2,6.803305E2,-7.556724E2,1.9221289E2,6.4255096E2,-3.750097E2,1.0644355E3,2.460666E2],"split_indices":[4,1,3,2,0,0,2,0,0,0,0,0,0,0,0],"split_type":[0,0,0,0,0,0,0,0,0,0,0,0,0,0,0],"sum_hessian":[3.6E1,2.4E1,1.2E1,1.6E1,8E0,4E0,8E0,1.4E1,2E0,7E0,1E0,2E0,2E0,7E0,1E0],"tree_param":{"num_deleted":"0","num_feature":"7","num_nodes":"15","size_leaf_vector":"1"}},{"base_weights":[3.6081528E2,-3.0608013E3,6.9130923E3,-4.7280034E3,-5.0908932E2,3.239119E3,1.0659541E3,-5.8734253E1,-8.277664E2,3.823476E2,-4.7568063E2,-1.1336138E2,6.089482E2],"categories":[],"categories_nodes":[],"categories_segments":[],"categories_sizes":[],"default_left":[0,0,0,0,0,0,0,0,0,0,0,0,0],"id":13,"left_children":[1,3,5,7,9,11,-1,-1,-1,-1,-1,-1,-1],"loss_changes":[8.506766E8,1.039485E8,1.4440902E8,2.1560726E8,2.2062616E8,1.06614104E8,0E0,0E0,0E0,0E0,0E0,0E0,0E0],"parents":[2147483647,0,0,1,1,2,2,3,3,4,4,5,5],"right_children":[2,4,6,8,10,12,-1,-1,-1,-1,-1,-1,-1],"split_conditions":[9E0,3.760788E4,3.832078E4,2.860826E4,5.958303E4,3.415447E4,1.0659541E3,-5.8734253E1,-8.277664E2,3.823476E2,-4.7568063E2,-1.1336138E2,6.089482E2],"split_indices":[4,3,1,1,1,2,0,0,0,0,0,0,0],"split_type":[0,0,0,0,0,0,0,0,0,0,0,0,0],"sum_hessian":[3.6E1,2.4E1,1.2E1,1.4E1,1E1,7E0,5E0,7E0,7E0,5E0,5E0,3E0,4E0],"tree_param":{"num_deleted":"0","num_feature":"7","num_nodes":"13","size_leaf_vector":"1"}},{"base_weights":[3.404557E2,-2.7939148E3,6.3419023E3,-1.5020565E3,-5.901257E3,7.2800566E3,-2.4579736E2,-3.2942166E2,4.174835E2,-7.572753E2,2.0638614E2,2.4052734E1,8.6639105E2],"categories":[],"categories_nodes":[],"categories_segments":[],"categories_sizes":[],"default_left":[0,0,0,0,0,0,0,0,0,0,0,0,0],"id":14,"left_children":[1,3,5,7,9,11,-1,-1,-1,-1,-1,-1,-1],"loss_changes":[7.1371674E8,9.149211E7,1.2521754E8,2.070569E8,1.088248E8,1.1481619E8,0E0,0E0,0E0,0E0,0E0,0E0,0E0],"parents":[2147483647,0,0,1,1,2,2,3,3,4,4,5,5],"right_children":[2,4,6,8,10,12,-1,-1,-1,-1,-1,-1,-1],"split_conditions":[9E0,5.958303E4,8.162352E4,3.86883E4,7.52494E4,4.4900727E4,-2.4579736E2,-3.2942166E2,4.174835E2,-7.572753E2,2.0638614E2,2.4052734E1,8.6639105E2],"split_indices":[4,1,0,3,0,3,0,0,0,0,0,0,0],"split_type":[0,0,0,0,0,0,0,0,0,0,0,0,0],"sum_hessian":[3.6E1,2.4E1,1.2E1,1.8E1,6E0,1.1E1,1E0,1.4E1,4E0,5E0,1E0,2E0,9E0],"tree_param":{"num_deleted":"0","num_feature":"7","num_nodes":"13","size_leaf_vector":"1"}},{"base_weights":[3.113242E2,-2.5330366E3,5.757301E3,-1.1151398E3,-4.9298374E3,2.5686726E3,9.049255E3,-2.5063301E2,6.212525E2,-6.036234E2,1.960668E2,-9.991685E1,4.909211E2,1.1630759E3,4.8508127E2],"categories":[],"categories_nodes":[],"categories_segments":[],"categories_sizes":[],"default_left":[0,0,0,0,0,0,0,0,0,0,0,0,0,0,0],"id":15,"left_children":[1,3,5,7,9,11,13,-1,-1,-1,-1,-1,-1,-1,-1],"loss_changes":[5.877254E8,7.946294E7,1.1321402E8,1.8887162E8,8.044774E7,7.171048E7,8.611136E6,0E0,0E0,0E0,0E0,0E0,0E0,0E0,0E0],"parents":[2147483647,0,0,1,1,2,2,3,3,4,4,5,5,6,6],"right_children":[2,4,6,8,10,12,14,-1,-1,-1,-1,-1,-1,-1,-1],"split_conditions":[9E0,5.5205797E4,3.832078E4,6.919339E4,7.52494E4,3.415447E4,6.3133605E4,-2.5063301E2,6.212525E2,-6.036234E2,1.960668E2,-9.991685E1,4.909211E2,1.1630759E3,4.8508127E2],"split_indices":[4,1,1,2,0,2,1,0,0,0,0,0,0,0,0],"split_type":[0,0,0,0,0,0,0,0,0,0,0,0,0,0,0],"sum_hessian":[3.6E1,2.4E1,1.2E1,1.6E1,8E0,7E0,5E0,1.4E1,2E0,7E0,1E0,3E0,4E0,2E0,3E0],"tree_param":{"num_deleted":"0","num_feature":"7","num_nodes":"15","size_leaf_vector":"1"}},{"base_weights":[3.3430603E2,-2.2812107E3,5.3384297E3,-3.7554558E3,-6.349343E1,2.360681E3,8.419023E3,-1.3738794E1,-6.904092E2,3.403812E2,-3.5202167E2,-9.2423E1,4.5164737E2,1.0855375E3,4.487004E2],"categories":[],"categories_nodes":[],"categories_segments":[],"categories_sizes":[],"default_left":[0,0,0,0,0,0,0,0,0,0,0,0,0,0,0],"id":16,"left_children":[1,3,5,7,9,11,13,-1,-1,-1,-1,-1,-1,-1,-1],"loss_changes":[4.964477E8,8.149804E7,9.937747E7,1.6993112E8,1.438228E8,6.0826948E7,8.77056E6,0E0,0E0,0E0,0E0,0E0,0E0,0E0,0E0],"parents":[2147483647,0,0,1,1,2,2,3,3,4,4,5,5,6,6],"right_children":[2,4,6,8,10,12,14,-1,-1,-1,-1,-1,-1,-1,-1],"split_conditions":[9E0,3.760788E4,3.832078E4,2.860826E4,5.958303E4,3.415447E4,6.3133605E4,-1.3738794E1,-6.904092E2,3.403812E2,-3.5202167E2,-9.2423E1,4.5164737E2,1.0855375E3,4.487004E2],"split_indices":[4,3,1,1,1,2,1,0,0,0,0,0,0,0,0],"split_type":[0,0,0,0,0,0,0,0,0,0,0,0,0,0,0],"sum_hessian":[3.6E1,2.4E1,1.2E1,1.4E1,1E1,7E0,5E0,7E0,7E0,5E0,5E0,3E0,4E0,2E0,3E0],"tree_param":{"num_deleted":"0","num_feature":"7","num_nodes":"15","size_leaf_vector":"1"}},{"base_weights":[3.327039E2,-2.0817212E3,4.950237E3,-3.4268533E3,-5.8202946E1,2.4512002E3,8.458455E2,-1.2536695E1,-6.299983E2,3.1201596E2,-3.226865E2,5.533099E2,-1.1209379E2],"categories":[],"categories_nodes":[],"categories_segments":[],"categories_sizes":[],"default_left":[0,0,0,0,0,0,0,0,0,0,0,0,0],"id":17,"left_children":[1,3,5,7,9,11,-1,-1,-1,-1,-1,-1,-1],"loss_changes":[4.2280643E8,6.784803E7,9.323981E7,1.4149418E8,1.2085105E8,1.0528296E8,0E0,0E0,0E0,0E0,0E0,0E0,0E0],"parents":[2147483647,0,0,1,1,2,2,3,3,4,4,5,5],"right_children":[2,4,6,8,10,12,-1,-1,-1,-1,-1,-1,-1],"split_conditions":[9E0,3.760788E4,6.0268246E4,2.860826E4,5.958303E4,3.832078E4,8.458455E2,-1.2536695E1,-6.299983E2,3.1201596E2,-3.226865E2,5.533099E2,-1.1209379E2],"split_indices":[4,3,3,1,1,0,0,0,0,0,0,0,0],"split_type":[0,0,0,0,0,0,0,0,0,0,0,0,0],"sum_hessian":[3.6E1,2.4E1,1.2E1,1.4E1,1E1,8E0,4E0,7E0,7E0,5E0,5E0,4E0,4E0],"tree_param":{"num_deleted":"0","num_feature":"7","num_nodes":"13","size_leaf_vector":"1"}},{"base_weights":[3.1656476E2,-1.8996775E3,4.554218E3,-3.127004E3,-5.3352806E1,3.1250232E3,1.0852278E3,-1.1439868E1,-5.7487335E2,2.8601465E2,-2.95796E2,5.283851E2,8.555436E0],"categories":[],"categories_nodes":[],"categories_segments":[],"categories_sizes":[],"default_left":[0,0,0,0,0,0,0,0,0,0,0,0,0],"id":18,"left_children":[1,3,5,7,9,11,-1,-1,-1,-1,-1,-1,-1],"loss_changes":[3.5614317E8,5.648425E7,8.310138E7,1.178159E8,1.0154848E8,7.828819E7,0E0,0E0,0E0,0E0,0E0,0E0,0E0],"parents":[2147483647,0,0,1,1,2,2,3,3,4,4,5,5],"right_children":[2,4,6,8,10,12,-1,-1,-1,-1,-1,-1,-1],"split_conditions":[9E0,3.760788E4,7.2760695E4,2.860826E4,5.958303E4,6.3133605E4,1.0852278E3,-1.1439868E1,-5.7487335E2,2.8601465E2,-2.95796E2,5.283851E2,8.555436E0],"split_indices":[4,3,3,1,1,0,0,0,0,0,0,0,0],"split_type":[0,0,0,0,0,0,0,0,0,0,0,0,0],"sum_hessian":[3.6E1,2.4E1,1.2E1,1.4E1,1E1,1.1E1,1E0,7E0,7E0,5E0,5E0,6E0,5E0],"tree_param":{"num_deleted":"0","num_feature":"7","num_nodes":"13","size_leaf_vector":"1"}},{"base_weights":[3.1264075E2,-9.339507E2,6.9090215E3,1.0993743E2,-5.4757886E2,4.16696E2,1.0309664E3,-1.11867165E2,4.5965143E2],"categories":[],"categories_nodes":[],"categories_segments":[],"categories_sizes":[],"default_left":[0,0,0,0,0,0,0,0,0],"id":19,"left_children":[1,3,5,7,-1,-1,-1,-1,-1],"loss_changes":[3.1070336E8,1.5231944E8,1.2988672E7,1.5397269E8,0E0,0E0,0E0,0E0,0E0],"parents":[2147483647,0,0,1,1,2,2,3,3],"right_children":[2,4,6,8,-1,-1,-1,-1,-1],"split_conditions":[6.0268246E4,6.8167055E4,6.8167055E4,4.7507535E4,-5.4757886E2,4.16696E2,1.0309664E3,-1.11867165E2,4.5965143E2],"split_indices":[3,1,2,3,0,0,0,0,0],"split_type":[0,0,0,0,0,0,0,0,0],"sum_hessian":[3.6E1,3.1E1,5E0,2.6E1,5E0,4E0,1E0,2.1E1,5E0],"tree_param":{"num_deleted":"0","num_feature":"7","num_nodes":"9","size_leaf_vector":"1"}},{"base_weights":[3.1510297E2,-8.467991E2,6.4593965E3,1.1182487E2,-5.0194736E2,3.833604E2,9.7941797E2,-1.9698631E2,2.5051704E2],"categories":[],"categories_nodes":[],"categories_segments":[],"categories_sizes":[],"default_left":[0,0,0,0,0,0,0,0,0],"id":20,"left_children":[1,3,5,7,-1,-1,-1,-1,-1],"loss_changes":[2.696153E8,1.2856213E8,1.4991664E7,1.394542E8,0E0,0E0,0E0,0E0,0E0],"parents":[2147483647,0,0,1,1,2,2,3,3],"right_children":[2,4,6,8,-1,-1,-1,-1,-1],"split_conditions":[6.0268246E4,6.8167055E4,6.8167055E4,3.86883E4,-5.0194736E2,3.833604E2,9.7941797E2,-1.9698631E2,2.5051704E2],"split_indices":[3,1,2,3,0,0,0,0,0],"split_type":[0,0,0,0,0,0,0,0,0],"sum_hessian":[3.6E1,3.1E1,5E0,2.6E1,5E0,4E0,1E0,1.4E1,1.2E1],"tree_param":{"num_deleted":"0","num_feature":"7","num_nodes":"9","size_leaf_vector":"1"}},{"base_weights":[3.083054E2,-7.761321E2,6.040588E3,1.0262507E2,-4.601184E2,3.5269165E2,9.3044727E2,-3.544565E2,1.3134682E2],"categories":[],"categories_nodes":[],"categories_segments":[],"categories_sizes":[],"default_left":[0,0,0,0,0,0,0,0,0],"id":21,"left_children":[1,3,5,7,-1,-1,-1,-1,-1],"loss_changes":[2.3469147E8,1.0803354E8,1.6409904E7,1.2389239E8,0E0,0E0,0E0,0E0,0E0],"parents":[2147483647,0,0,1,1,2,2,3,3],"right_children":[2,4,6,8,-1,-1,-1,-1,-1],"split_conditions":[6.0268246E4,6.8167055E4,6.8167055E4,2.9675324E4,-4.601184E2,3.5269165E2,9.3044727E2,-3.544565E2,1.3134682E2],"split_indices":[3,1,2,3,0,0,0,0,0],"split_type":[0,0,0,0,0,0,0,0,0],"sum_hessian":[3.6E1,3.1E1,5E0,2.6E1,5E0,4E0,1E0,6E0,2E1],"tree_param":{"num_deleted":"0","num_feature":"7","num_nodes":"9","size_leaf_vector":"1"}},{"base_weights":[2.9368848E2,-7.1986975E2,5.6503843E3,8.4099174E1,-4.2177515E2,3.244761E2,8.83925E2,-1.8359492E2,2.2930705E2],"categories":[],"categories_nodes":[],"categories_segments":[],"categories_sizes":[],"default_left":[0,0,0,0,0,0,0,0,0],"id":22,"left_children":[1,3,5,7,-1,-1,-1,-1,-1],"loss_changes":[2.0495248E8,9.034473E7,1.7346016E7,1.1872592E8,0E0,0E0,0E0,0E0,0E0],"parents":[2147483647,0,0,1,1,2,2,3,3],"right_children":[2,4,6,8,-1,-1,-1,-1,-1],"split_conditions":[6.0268246E4,6.8167055E4,6.8167055E4,3.4322938E4,-4.2177515E2,3.244761E2,8.83925E2,-1.8359492E2,2.2930705E2],"split_indices":[3,1,2,2,0,0,0,0,0],"split_type":[0,0,0,0,0,0,0,0,0],"sum_hessian":[3.6E1,3.1E1,5E0,2.6E1,5E0,4E0,1E0,1.4E1,1.2E1],"tree_param":{"num_deleted":"0","num_feature":"7","num_nodes":"9","size_leaf_vector":"1"}},{"base_weights":[2.86815E2,-6.59635E2,5.286746E3,-2.327461E3,7.6686633E2,2.9851797E2,8.3972894E2,2.9963697E1,-4.6636264E2,4.3686215E2,-1.9223071E2],"categories":[],"categories_nodes":[],"categories_segments":[],"categories_sizes":[],"default_left":[0,0,0,0,0,0,0,0,0,0,0],"id":23,"left_children":[1,3,5,7,9,-1,-1,-1,-1,-1,-1],"loss_changes":[1.7857816E8,7.791784E7,1.7887312E7,9.3457416E7,1.8274125E8,0E0,0E0,0E0,0E0,0E0,0E0],"parents":[2147483647,0,0,1,1,2,2,3,3,4,4],"right_children":[2,4,6,8,10,-1,-1,-1,-1,-1,-1],"split_conditions":[6.0268246E4,3.760788E4,6.8167055E4,2.860826E4,3.9724484E4,2.9851797E2,8.3972894E2,2.9963697E1,-4.6636264E2,4.3686215E2,-1.9223071E2],"split_indices":[3,3,2,1,0,0,0,0,0,0,0],"split_type":[0,0,0,0,0,0,0,0,0,0,0],"sum_hessian":[3.6E1,3.1E1,5E0,1.4E1,1.7E1,4E0,1E0,7E0,7E0,7E0,1E1],"tree_param":{"num_deleted":"0","num_feature":"7","num_nodes":"11","size_leaf_vector":"1"}},{"base_weights":[2.8371423E2,-5.996643E2,4.947781E3,1.2600673E2,-3.76524E2,2.7463666E2,7.977426E2,-3.0852264E2,1.1904174E2],"categories":[],"categories_nodes":[],"categories_segments":[],"categories_sizes":[],"default_left":[0,0,0,0,0,0,0,0,0],"id":24,"left_children":[1,3,5,7,-1,-1,-1,-1,-1],"loss_changes":[1.5541203E8,7.398377E7,1.8108096E7,9.5960616E7,0E0,0E0,0E0,0E0,0E0],"parents":[2147483647,0,0,1,1,2,2,3,3],"right_children":[2,4,6,8,-1,-1,-1,-1,-1],"split_conditions":[6.0268246E4,6.8167055E4,6.8167055E4,2.9675324E4,-3.76524E2,2.7463666E2,7.977426E2,-3.0852264E2,1.1904174E2],"split_indices":[3,1,2,3,0,0,0,0,0],"split_type":[0,0,0,0,0,0,0,0,0],"sum_hessian":[3.6E1,3.1E1,5E0,2.6E1,5E0,4E0,1E0,6E0,2E1],"tree_param":{"num_deleted":"0","num_feature":"7","num_nodes":"9","size_leaf_vector":"1"}},{"base_weights":[2.6902884E2,-5.573856E2,4.6317344E3,1.0638824E2,-3.4514703E2,2.5266594E2,7.5785547E2,-8.292773E1,3.5194305E2],"categories":[],"categories_nodes":[],"categories_segments":[],"categories_sizes":[],"default_left":[0,0,0,0,0,0,0,0,0],"id":25,"left_children":[1,3,5,7,-1,-1,-1,-1,-1],"loss_changes":[1.3598157E8,6.183976E7,1.807124E7,8.914216E7,0E0,0E0,0E0,0E0,0E0],"parents":[2147483647,0,0,1,1,2,2,3,3],"right_children":[2,4,6,8,-1,-1,-1,-1,-1],"split_conditions":[6.0268246E4,6.8167055E4,6.8167055E4,4.7507535E4,-3.4514703E2,2.5266594E2,7.5785547E2,-8.292773E1,3.5194305E2],"split_indices":[3,1,2,3,0,0,0,0,0],"split_type":[0,0,0,0,0,0,0,0,0],"sum_hessian":[3.6E1,3.1E1,5E0,2.6E1,5E0,4E0,1E0,2.1E1,5E0],"tree_param":{"num_deleted":"0","num_feature":"7","num_nodes":"9","size_leaf_vector":"1"}},{"base_weights":[2.673791E2,-1.9359708E3,1.6927212E3,4.555984E2,-4.0855435E3,-1.3032715E3,2.5973455E3,-1.2754635E2,6.2865155E2,-4.776543E2,-1.3416972E2,-2.0424727E2,1.1963672E2,4.184655E1,4.2986026E2],"categories":[],"categories_nodes":[],"categories_segments":[],"categories_sizes":[],"default_left":[0,0,0,0,0,0,0,0,0,0,0,0,0,0,0],"id":26,"left_children":[1,3,5,7,9,11,13,-1,-1,-1,-1,-1,-1,-1,-1],"loss_changes":[1.1947657E8,7.897414E7,6.5720724E7,8.876765E7,8.759296E6,1.3529961E7,6.4924224E7,0E0,0E0,0E0,0E0,0E0,0E0,0E0,0E0],"parents":[2147483647,0,0,1,1,2,2,3,3,4,4,5,5,6,6],"right_children":[2,4,6,8,10,12,14,-1,-1,-1,-1,-1,-1,-1,-1],"split_conditions":[3.760788E4,2.860826E4,3E0,6.919339E4,3.415447E4,7.52494E4,4.7507535E4,-1.2754635E2,6.2865155E2,-4.776543E2,-1.3416972E2,-2.0424727E2,1.1963672E2,4.184655E1,4.2986026E2],"split_indices":[3,1,4,2,0,0,3,0,0,0,0,0,0,0,0],"split_type":[0,0,0,0,0,0,0,0,0,0,0,0,0,0,0],"sum_hessian":[3.6E1,1.4E1,2.2E1,7E0,7E0,5E0,1.7E1,6E0,1E0,5E0,2E0,4E0,1E0,8E0,9E0],"tree_param":{"num_deleted":"0","num_feature":"7","num_nodes":"15","size_leaf_vector":"1"}},{"base_weights":[2.48111E2,-4.6883493E2,4.0304707E3,3.6627283E2,-2.6436963E3,2.0426852E2,6.984699E2,-1.2163384E2,3.1391068E2,-3.8607944E2,-1.5712501E1],"categories":[],"categories_nodes":[],"categories_segments":[],"categories_sizes":[],"default_left":[0,0,0,0,0,0,0,0,0,0,0],"id":27,"left_children":[1,3,5,7,9,-1,-1,-1,-1,-1,-1],"loss_changes":[1.0222427E8,5.9088104E7,2.0966704E7,1.0913785E8,2.663098E7,0E0,0E0,0E0,0E0,0E0,0E0],"parents":[2147483647,0,0,1,1,2,2,3,3,4,4],"right_children":[2,4,6,8,10,-1,-1,-1,-1,-1,-1],"split_conditions":[6.0268246E4,5.5205797E4,6.8167055E4,4.075363E4,3.415447E4,2.0426852E2,6.984699E2,-1.2163384E2,3.1391068E2,-3.8607944E2,-1.5712501E1],"split_indices":[3,0,2,3,2,0,0,0,0,0,0],"split_type":[0,0,0,0,0,0,0,0,0,0,0],"sum_hessian":[3.6E1,3.1E1,5E0,2.3E1,8E0,4E0,1E0,1.5E1,8E0,5E0,3E0],"tree_param":{"num_deleted":"0","num_feature":"7","num_nodes":"11","size_leaf_vector":"1"}},{"base_weights":[2.420356E2,-4.284991E2,3.7778816E3,4.6236298E2,-2.1712688E3,1.8792719E2,6.635465E2,-1.20203224E2,3.5253085E2,-2.9772562E2,-6.086328E1],"categories":[],"categories_nodes":[],"categories_segments":[],"categories_sizes":[],"default_left":[0,0,0,0,0,0,0,0,0,0,0],"id":28,"left_children":[1,3,5,7,9,-1,-1,-1,-1,-1,-1],"loss_changes":[8.934239E7,5.068607E7,2.0082768E7,1.1639248E8,1.2042056E7,0E0,0E0,0E0,0E0,0E0,0E0],"parents":[2147483647,0,0,1,1,2,2,3,3,4,4],"right_children":[2,4,6,8,10,-1,-1,-1,-1,-1,-1],"split_conditions":[6.0268246E4,4.3476473E4,6.8167055E4,4.075363E4,3.415447E4,1.8792719E2,6.635465E2,-1.20203224E2,3.5253085E2,-2.9772562E2,-6.086328E1],"split_indices":[3,0,2,3,2,0,0,0,0,0,0],"split_type":[0,0,0,0,0,0,0,0,0,0,0],"sum_hessian":[3.6E1,3.1E1,5E0,2.1E1,1E1,4E0,1E0,1.4E1,7E0,6E0,4E0],"tree_param":{"num_deleted":"0","num_feature":"7","num_nodes":"11","size_leaf_vector":"1"}},{"base_weights":[2.3743236E2,-3.895947E2,3.5420046E3,3.5085678E2,-2.3208438E3,1.728929E2,6.3036914E2,-2.2699144E2,1.3505534E2,-4.0670993E2,-1.2408993E2],"categories":[],"categories_nodes":[],"categories_segments":[],"categories_sizes":[],"default_left":[0,0,0,0,0,0,0,0,0,0,0],"id":29,"left_children":[1,3,5,7,9,-1,-1,-1,-1,-1,-1],"loss_changes":[7.8046024E7,4.657416E7,1.9144248E7,6.5945068E7,1.1925868E7,0E0,0E0,0E0,0E0,0E0,0E0],"parents":[2147483647,0,0,1,1,2,2,3,3,4,4],"right_children":[2,4,6,8,10,-1,-1,-1,-1,-1,-1],"split_conditions":[6.0268246E4,5.5205797E4,6.8167055E4,2.9675324E4,3.6195824E4,1.728929E2,6.3036914E2,-2.2699144E2,1.3505534E2,-4.0670993E2,-1.2408993E2],"split_indices":[3,1,2,3,3,0,0,0,0,0,0],"split_type":[0,0,0,0,0,0,0,0,0,0,0],"sum_hessian":[3.6E1,3.1E1,5E0,2.3E1,8E0,4E0,1E0,6E0,1.7E1,2E0,6E0],"tree_param":{"num_deleted":"0","num_feature":"7","num_nodes":"11","size_leaf_vector":"1"}},{"base_weights":[2.1856886E2,-1.0805466E2,5.9885077E2,-1.4035729E3,7.801648E2,8.0238014E1,-3.4340793E2,3.0064548E2,-7.0674774E1],"categories":[],"categories_nodes":[],"categories_segments":[],"categories_sizes":[],"default_left":[0,0,0,0,0,0,0,0,0],"id":30,"left_children":[1,3,-1,5,7,-1,-1,-1,-1],"loss_changes":[7.03772E7,4.2520376E7,0E0,6.9943464E7,7.495138E7,0E0,0E0,0E0,0E0],"parents":[2147483647,0,0,1,1,3,3,4,4],"right_children":[2,4,-1,6,8,-1,-1,-1,-1],"split_conditions":[7.812955E4,3.760788E4,5.9885077E2,2.860826E4,3.9724484E4,8.0238014E1,-3.4340793E2,3.0064548E2,-7.0674774E1],"split_indices":[3,3,0,1,0,0,0,0,0],"split_type":[0,0,0,0,0,0,0,0,0],"sum_hessian":[3.6E1,3.5E1,1E0,1.4E1,2.1E1,7E0,7E0,8E0,1.3E1],"tree_param":{"num_deleted":"0","num_feature":"7","num_nodes":"9","size_leaf_vector":"1"}},{"base_weights":[2.119996E2,-3.5620712E2,3.2071023E3,3.5547922E2,-2.2144587E3,1.5728899E2,5.689082E2,-8.022994E1,2.3742546E2,-3.223036E2,-1.4797852E1],"categories":[],"categories_nodes":[],"categories_segments":[],"categories_sizes":[],"default_left":[0,0,0,0,0,0,0,0,0,0,0],"id":31,"left_children":[1,3,5,7,9,-1,-1,-1,-1,-1,-1],"loss_changes":[6.411038E7,4.3106948E7,1.5388188E7,5.799994E7,1.8280904E7,0E0,0E0,0E0,0E0,0E0,0E0],"parents":[2147483647,0,0,1,1,2,2,3,3,4,4],"right_children":[2,4,6,8,10,-1,-1,-1,-1,-1,-1],"split_conditions":[6.0268246E4,5.5205797E4,6.8167055E4,4.075363E4,3.415447E4,1.5728899E2,5.689082E2,-8.022994E1,2.3742546E2,-3.223036E2,-1.4797852E1],"split_indices":[3,0,2,3,2,0,0,0,0,0,0],"split_type":[0,0,0,0,0,0,0,0,0,0,0],"sum_hessian":[3.6E1,3.1E1,5E0,2.3E1,8E0,4E0,1E0,1.5E1,8E0,5E0,3E0],"tree_param":{"num_deleted":"0","num_feature":"7","num_nodes":"11","size_leaf_vector":"1"}},{"base_weights":[2.0556464E2,-8.898239E1,5.404629E2,-1.1897401E3,6.655789E2,4.063014E1,-3.6515195E2,2.572369E2,-6.07756E1],"categories":[],"categories_nodes":[],"categories_segments":[],"categories_sizes":[],"default_left":[0,0,0,0,0,0,0,0,0],"id":32,"left_children":[1,3,-1,5,7,-1,-1,-1,-1],"loss_changes":[5.714157E7,3.0693076E7,0E0,6.0420144E7,5.4978988E7,0E0,0E0,0E0,0E0],"parents":[2147483647,0,0,1,1,3,3,4,4],"right_children":[2,4,-1,6,8,-1,-1,-1,-1],"split_conditions":[7.812955E4,3.760788E4,5.404629E2,3.3781543E4,3.9724484E4,4.063014E1,-3.6515195E2,2.572369E2,-6.07756E1],"split_indices":[3,3,0,1,0,0,0,0,0],"split_type":[0,0,0,0,0,0,0,0,0],"sum_hessian":[3.6E1,3.5E1,1E0,1.4E1,2.1E1,9E0,5E0,8E0,1.3E1],"tree_param":{"num_deleted":"0","num_feature":"7","num_nodes":"9","size_leaf_vector":"1"}},{"base_weights":[1.961547E2,-3.17858E2,2.9048633E3,3.399164E2,-2.0366056E3,1.4320765E3,5.134399E2,-1.8965887E2,1.1907842E2,-3.2700995E2,-1.2170217E2,3.2319923E1,1.6284961E2],"categories":[],"categories_nodes":[],"categories_segments":[],"categories_sizes":[],"default_left":[0,0,0,0,0,0,0,0,0,0,0,0,0],"id":33,"left_children":[1,3,5,7,9,11,-1,-1,-1,-1,-1,-1,-1],"loss_changes":[5.243883E7,3.6869816E7,1.2348924E7,4.7929708E7,5.11878E6,5.62696E5,0E0,0E0,0E0,0E0,0E0,0E0,0E0],"parents":[2147483647,0,0,1,1,2,2,3,3,4,4,5,5],"right_children":[2,4,6,8,10,12,-1,-1,-1,-1,-1,-1,-1],"split_conditions":[6.0268246E4,5.5205797E4,6.8167055E4,2.9675324E4,3.6195824E4,3.2339318E4,5.134399E2,-1.8965887E2,1.1907842E2,-3.2700995E2,-1.2170217E2,3.2319923E1,1.6284961E2],"split_indices":[3,1,2,3,3,0,0,0,0,0,0,0,0],"split_type":[0,0,0,0,0,0,0,0,0,0,0,0,0],"sum_hessian":[3.6E1,3.1E1,5E0,2.3E1,8E0,4E0,1E0,6E0,1.7E1,2E0,6E0,1E0,3E0],"tree_param":{"num_deleted":"0","num_feature":"7","num_nodes":"13","size_leaf_vector":"1"}},{"base_weights":[1.8165628E2,-8.427992E1,4.8776797E2,-1.7340234E3,3.0346957E2,-3.1772968E1,-3.516505E2,5.9457227E2,-9.611581E0],"categories":[],"categories_nodes":[],"categories_segments":[],"categories_sizes":[],"default_left":[0,0,0,0,0,0,0,0,0],"id":34,"left_children":[1,3,-1,5,7,-1,-1,-1,-1],"loss_changes":[4.6618268E7,2.3554962E7,0E0,1.6554328E7,6.820833E7,0E0,0E0,0E0,0E0],"parents":[2147483647,0,0,1,1,3,3,4,4],"right_children":[2,4,-1,6,8,-1,-1,-1,-1],"split_conditions":[7.812955E4,2.9675324E4,4.8776797E2,2.9210848E4,2.2978814E4,-3.1772968E1,-3.516505E2,5.9457227E2,-9.611581E0],"split_indices":[3,3,0,3,1,0,0,0,0],"split_type":[0,0,0,0,0,0,0,0,0],"sum_hessian":[3.6E1,3.5E1,1E0,6E0,2.9E1,4E0,2E0,1E0,2.8E1],"tree_param":{"num_deleted":"0","num_feature":"7","num_nodes":"9","size_leaf_vector":"1"}},{"base_weights":[1.8212076E2,-2.8772122E2,2.657591E3,4.5539822E2,-1.7478036E3,1.3355906E3,4.633797E2,-6.7509224E1,2.5181432E2,-2.3258202E2,-5.890199E1,3.1184376E1,1.5135664E2],"categories":[],"categories_nodes":[],"categories_segments":[],"categories_sizes":[],"default_left":[0,0,0,0,0,0,0,0,0,0,0,0,0],"id":35,"left_children":[1,3,5,7,9,11,-1,-1,-1,-1,-1,-1,-1],"loss_changes":[4.37986E7,3.551645E7,9.486416E6,5.300207E7,5.997804E6,4.39015E5,0E0,0E0,0E0,0E0,0E0,0E0,0E0],"parents":[2147483647,0,0,1,1,2,2,3,3,4,4,5,5],"right_children":[2,4,6,8,10,12,-1,-1,-1,-1,-1,-1,-1],"split_conditions":[6.0268246E4,4.3476473E4,6.8167055E4,4.075363E4,3.415447E4,3.2339318E4,4.633797E2,-6.7509224E1,2.5181432E2,-2.3258202E2,-5.890199E1,3.1184376E1,1.5135664E2],"split_indices":[3,0,2,3,2,0,0,0,0,0,0,0,0],"split_type":[0,0,0,0,0,0,0,0,0,0,0,0,0],"sum_hessian":[3.6E1,3.1E1,5E0,2.1E1,1E1,4E0,1E0,1.4E1,7E0,6E0,4E0,1E0,3E0],"tree_param":{"num_deleted":"0","num_feature":"7","num_nodes":"13","size_leaf_vector":"1"}},{"base_weights":[1.7846915E2,-2.6229825E2,2.4994836E3,3.438253E2,-1.8494834E3,1.2385383E3,4.4021054E2,1.1259869E2,-1.7165654E2,-3.0006787E2,-1.0919021E2,2.9625E1,1.4000479E2],"categories":[],"categories_nodes":[],"categories_segments":[],"categories_sizes":[],"default_left":[0,0,0,0,0,0,0,0,0,0,0,0,0],"id":36,"left_children":[1,3,5,7,9,11,-1,-1,-1,-1,-1,-1,-1],"loss_changes":[3.8507628E7,3.1420868E7,8.942436E6,4.0610228E7,4.572666E6,3.461785E5,0E0,0E0,0E0,0E0,0E0,0E0,0E0],"parents":[2147483647,0,0,1,1,2,2,3,3,4,4,5,5],"right_children":[2,4,6,8,10,12,-1,-1,-1,-1,-1,-1,-1],"split_conditions":[6.0268246E4,5.5205797E4,6.8167055E4,5.5205797E4,3.6195824E4,3.2339318E4,4.4021054E2,1.1259869E2,-1.7165654E2,-3.0006787E2,-1.0919021E2,2.9625E1,1.4000479E2],"split_indices":[3,1,2,0,3,0,0,0,0,0,0,0,0],"split_type":[0,0,0,0,0,0,0,0,0,0,0,0,0],"sum_hessian":[3.6E1,3.1E1,5E0,2.3E1,8E0,4E0,1E0,1.7E1,6E0,2E0,6E0,1E0,3E0],"tree_param":{"num_deleted":"0","num_feature":"7","num_nodes":"13","size_leaf_vector":"1"}},{"base_weights":[1.6444702E2,-5.83966E2,1.4356946E3,1.2207812E3,-1.2533696E3,3.407894E3,-4.6944165E2,-4.510521E1,5.6258905E2,-2.3418364E2,-1.484125E1,7.552539E1,5.208561E2,-1.5211864E2,9.6259964E1],"categories":[],"categories_nodes":[],"categories_segments":[],"categories_sizes":[],"default_left":[0,0,0,0,0,0,0,0,0,0,0,0,0,0,0],"id":37,"left_children":[1,3,5,7,9,11,13,-1,-1,-1,-1,-1,-1,-1,-1],"loss_changes":[3.6040876E7,3.0524596E7,5.4202124E7,5.408983E7,2.1301206E7,2.9501848E7,1.3513427E7,0E0,0E0,0E0,0E0,0E0,0E0,0E0,0E0],"parents":[2147483647,0,0,1,1,2,2,3,3,4,4,5,5,6,6],"right_children":[2,4,6,8,10,12,14,-1,-1,-1,-1,-1,-1,-1,-1],"split_conditions":[4.7507535E4,2.3644303E4,6.3133605E4,6.919339E4,3.6195824E4,3.2339318E4,5.917604E4,-4.510521E1,5.6258905E2,-2.3418364E2,-1.484125E1,7.552539E1,5.208561E2,-1.5211864E2,9.6259964E1],"split_indices":[3,1,1,2,3,1,3,0,0,0,0,0,0,0,0],"split_type":[0,0,0,0,0,0,0,0,0,0,0,0,0,0,0],"sum_hessian":[3.6E1,2.3E1,1.3E1,6E0,1.7E1,6E0,7E0,5E0,1E0,8E0,9E0,3E0,3E0,4E0,3E0],"tree_param":{"num_deleted":"0","num_feature":"7","num_nodes":"15","size_leaf_vector":"1"}},{"base_weights":[1.6986653E2,-5.14384E2,1.3307341E3,1.1726295E3,-1.1418679E3,3.152302E3,-4.294795E2,-4.134642E1,5.344596E2,-2.1336734E2,-1.3505625E1,6.986114E1,4.8179172E2,-1.3994914E2,8.904053E1],"categories":[],"categories_nodes":[],"categories_segments":[],"categories_sizes":[],"default_left":[0,0,0,0,0,0,0,0,0,0,0,0,0,0,0],"id":38,"left_children":[1,3,5,7,9,11,13,-1,-1,-1,-1,-1,-1,-1,-1],"loss_changes":[3.0074506E7,2.6744758E7,4.624273E7,4.8529704E7,1.7685934E7,2.524248E7,1.1488546E7,0E0,0E0,0E0,0E0,0E0,0E0,0E0,0E0],"parents":[2147483647,0,0,1,1,2,2,3,3,4,4,5,5,6,6],"right_children":[2,4,6,8,10,12,14,-1,-1,-1,-1,-1,-1,-1,-1],"split_conditions":[4.7507535E4,2.3644303E4,6.3133605E4,6.919339E4,3.6195824E4,3.2339318E4,5.917604E4,-4.134642E1,5.344596E2,-2.1336734E2,-1.3505625E1,6.986114E1,4.8179172E2,-1.3994914E2,8.904053E1],"split_indices":[3,1,1,2,3,1,3,0,0,0,0,0,0,0,0],"split_type":[0,0,0,0,0,0,0,0,0,0,0,0,0,0,0],"sum_hessian":[3.6E1,2.3E1,1.3E1,6E0,1.7E1,6E0,7E0,5E0,1E0,8E0,9E0,3E0,3E0,4E0,3E0],"tree_param":{"num_deleted":"0","num_feature":"7","num_nodes":"15","size_leaf_vector":"1"}},{"base_weights":[1.7360919E2,-2.605032E1,3.680676E2,-2.4085198E3,1.8493376E2,-7.607881E1,-2.851992E2,2.183242E2,-3.2124805E1],"categories":[],"categories_nodes":[],"categories_segments":[],"categories_sizes":[],"default_left":[0,0,0,0,0,0,0,0,0],"id":39,"left_children":[1,3,-1,5,7,-1,-1,-1,-1],"loss_changes":[2.6003992E7,1.854129E7,0E0,2.2406E4,3.5092612E7,0E0,0E0,0E0,0E0],"parents":[2147483647,0,0,1,1,3,3,4,4],"right_children":[2,4,-1,6,8,-1,-1,-1,-1],"split_conditions":[7.812955E4,1.854249E4,3.680676E2,1.8066957E4,2.7906855E4,-7.607881E1,-2.851992E2,2.183242E2,-3.2124805E1],"split_indices":[3,0,0,0,0,0,0,0,0],"split_type":[0,0,0,0,0,0,0,0,0],"sum_hessian":[3.6E1,3.5E1,1E0,2E0,3.3E1,1E0,1E0,6E0,2.7E1],"tree_param":{"num_deleted":"0","num_feature":"7","num_nodes":"9","size_leaf_vector":"1"}},{"base_weights":[1.6146434E2,-5.3685266E2,1.1115587E3,1.0146541E3,-1.6890231E3,2.3003584E3,-3.6478564E2,2.3348308E0,4.968203E2,-2.4588884E2,-6.778686E1,-6.1483207E0,4.202128E2,-1.2618328E2,8.477197E1],"categories":[],"categories_nodes":[],"categories_segments":[],"categories_sizes":[],"default_left":[0,0,0,0,0,0,0,0,0,0,0,0,0,0,0],"id":40,"left_children":[1,3,5,7,9,11,13,-1,-1,-1,-1,-1,-1,-1,-1],"loss_changes":[2.5145022E7,4.104098E7,2.892038E7,3.907576E7,8.453088E6,4.0683468E7,9.771078E6,0E0,0E0,0E0,0E0,0E0,0E0,0E0,0E0],"parents":[2147483647,0,0,1,1,2,2,3,3,4,4,5,5,6,6],"right_children":[2,4,6,8,10,12,14,-1,-1,-1,-1,-1,-1,-1,-1],"split_conditions":[4.6018793E4,2.9959531E4,6.3133605E4,6.919339E4,3.6195824E4,3.2339318E4,5.917604E4,2.3348308E0,4.968203E2,-2.4588884E2,-6.778686E1,-6.1483207E0,4.202128E2,-1.2618328E2,8.477197E1],"split_indices":[3,1,1,2,3,1,3,0,0,0,0,0,0,0,0],"split_type":[0,0,0,0,0,0,0,0,0,0,0,0,0,0,0],"sum_hessian":[3.6E1,2.1E1,1.5E1,9E0,1.2E1,8E0,7E0,8E0,1E0,6E0,6E0,4E0,4E0,4E0,3E0],"tree_param":{"num_deleted":"0","num_feature":"7","num_nodes":"15","size_leaf_vector":"1"}},{"base_weights":[1.604022E2,-1.7375894E2,1.9158613E3,3.4827853E2,-1.5465522E3,9.8441956E2,3.2865353E2,9.488276E1,-1.24574455E2,-2.3051807E2,-2.197168E0,1.6246485E1,1.149292E2],"categories":[],"categories_nodes":[],"categories_segments":[],"categories_sizes":[],"default_left":[0,0,0,0,0,0,0,0,0,0,0,0,0],"id":41,"left_children":[1,3,5,7,9,11,-1,-1,-1,-1,-1,-1,-1],"loss_changes":[2.203733E7,2.3471416E7,4.424888E6,2.4156934E7,1.0358662E7,4.90869E5,0E0,0E0,0E0,0E0,0E0,0E0,0E0],"parents":[2147483647,0,0,1,1,2,2,3,3,4,4,5,5],"right_children":[2,4,6,8,10,12,-1,-1,-1,-1,-1,-1,-1],"split_conditions":[6.0268246E4,5.5205797E4,6.8167055E4,5.5205797E4,3.415447E4,3.2339318E4,3.2865353E2,9.488276E1,-1.24574455E2,-2.3051807E2,-2.197168E0,1.6246485E1,1.149292E2],"split_indices":[3,0,2,1,2,0,0,0,0,0,0,0,0],"split_type":[0,0,0,0,0,0,0,0,0,0,0,0,0],"sum_hessian":[3.6E1,3.1E1,5E0,2.3E1,8E0,4E0,1E0,1.7E1,6E0,5E0,3E0,1E0,3E0],"tree_param":{"num_deleted":"0","num_feature":"7","num_nodes":"13","size_leaf_vector":"1"}},{"base_weights":[1.4969745E2,-4.3081345E2,1.1341663E3,1.016363E3,-9.6967017E2,2.5831606E3,-2.754746E2,-3.716937E1,4.6723517E2,-1.7355533E2,-1.0947918E0,6.4728714E1,3.8732443E2,-1.01884926E2,7.226123E1],"categories":[],"categories_nodes":[],"categories_segments":[],"categories_sizes":[],"default_left":[0,0,0,0,0,0,0,0,0,0,0,0,0,0,0],"id":42,"left_children":[1,3,5,7,9,11,13,-1,-1,-1,-1,-1,-1,-1,-1],"loss_changes":[2.1633926E7,1.9701234E7,2.9307458E7,3.725972E7,1.3197844E7,1.4974972E7,6.671853E6,0E0,0E0,0E0,0E0,0E0,0E0,0E0,0E0],"parents":[2147483647,0,0,1,1,2,2,3,3,4,4,5,5,6,6],"right_children":[2,4,6,8,10,12,14,-1,-1,-1,-1,-1,-1,-1,-1],"split_conditions":[4.7507535E4,2.3644303E4,6.3133605E4,6.919339E4,3.760788E4,3.2339318E4,5.917604E4,-3.716937E1,4.6723517E2,-1.7355533E2,-1.0947918E0,6.4728714E1,3.8732443E2,-1.01884926E2,7.226123E1],"split_indices":[3,1,1,2,3,1,3,0,0,0,0,0,0,0,0],"split_type":[0,0,0,0,0,0,0,0,0,0,0,0,0,0,0],"sum_hessian":[3.6E1,2.3E1,1.3E1,6E0,1.7E1,6E0,7E0,5E0,1E0,9E0,8E0,3E0,3E0,4E0,3E0],"tree_param":{"num_deleted":"0","num_feature":"7","num_nodes":"15","size_leaf_vector":"1"}},{"base_weights":[1.5304738E2,-3.7709045E2,1.0509231E3,9.453227E1,-2.1881633E3,2.389423E3,-2.5162964E2,1.4399681E2,-9.224223E1,-2.4855176E2,-4.9937305E1,5.9874123E1,3.582749E2,-9.3734184E1,6.68418E1],"categories":[],"categories_nodes":[],"categories_segments":[],"categories_sizes":[],"default_left":[0,0,0,0,0,0,0,0,0,0,0,0,0,0,0],"id":43,"left_children":[1,3,5,7,9,11,13,-1,-1,-1,-1,-1,-1,-1,-1],"loss_changes":[1.8008214E7,2.0706288E7,2.5009784E7,2.86932E7,1.269644E6,1.2812932E7,5.673639E6,0E0,0E0,0E0,0E0,0E0,0E0,0E0,0E0],"parents":[2147483647,0,0,1,1,2,2,3,3,4,4,5,5,6,6],"right_children":[2,4,6,8,10,12,14,-1,-1,-1,-1,-1,-1,-1,-1],"split_conditions":[4.7507535E4,5.5205797E4,6.3133605E4,2.9959531E4,3.832078E4,3.2339318E4,5.917604E4,1.4399681E2,-9.224223E1,-2.4855176E2,-4.9937305E1,5.9874123E1,3.582749E2,-9.3734184E1,6.68418E1],"split_indices":[3,0,1,1,1,1,3,0,0,0,0,0,0,0,0],"split_type":[0,0,0,0,0,0,0,0,0,0,0,0,0,0,0],"sum_hessian":[3.6E1,2.3E1,1.3E1,1.9E1,4E0,6E0,7E0,8E0,1.1E1,3E0,1E0,3E0,3E0,4E0,3E0],"tree_param":{"num_deleted":"0","num_feature":"7","num_nodes":"15","size_leaf_vector":"1"}},{"base_weights":[1.4164877E2,-1.2742012E3,4.567875E2,-1.9226054E2,-2.652702E2,4.3667365E2,1.8089801E2,-6.776712E1,3.5723698E1,-1.19764565E2,6.525263E1],"categories":[],"categories_nodes":[],"categories_segments":[],"categories_sizes":[],"default_left":[0,0,0,0,0,0,0,0,0,0,0],"id":44,"left_children":[1,3,5,7,-1,-1,9,-1,-1,-1,-1],"loss_changes":[1.7091038E7,9.930182E6,3.2650196E7,1.575749E6,0E0,0E0,2.0286302E7,0E0,0E0,0E0,0E0],"parents":[2147483647,0,0,1,1,2,2,3,3,6,6],"right_children":[2,4,6,8,-1,-1,10,-1,-1,-1,-1],"split_conditions":[2.9675324E4,2.9210848E4,2.2978814E4,2.3644303E4,-2.652702E2,4.3667365E2,3.760788E4,-6.776712E1,3.5723698E1,-1.19764565E2,6.525263E1],"split_indices":[3,3,1,0,0,0,3,0,0,0,0],"split_type":[0,0,0,0,0,0,0,0,0,0,0],"sum_hessian":[3.6E1,6E0,3E1,4E0,2E0,1E0,2.9E1,2E0,2E0,7E0,2.2E1],"tree_param":{"num_deleted":"0","num_feature":"7","num_nodes":"11","size_leaf_vector":"1"}},{"base_weights":[1.2977737E2,-2.0815135E2,3.1560864E2,-1.5426877E2,1.9207285E3,-6.915507E1,6.1973633E1,3.8027805E2,3.0941408E0],"categories":[],"categories_nodes":[],"categories_segments":[],"categories_sizes":[],"default_left":[0,0,0,0,0,0,0,0,0],"id":45,"left_children":[1,-1,3,5,7,-1,-1,-1,-1],"loss_changes":[1.5861242E7,0E0,2.6693644E7,1.2072629E7,2.8335756E7,0E0,0E0,0E0,0E0],"parents":[2147483647,0,0,2,2,3,3,4,4],"right_children":[2,-1,4,6,8,-1,-1,-1,-1],"split_conditions":[1.854249E4,-2.0815135E2,6.3133605E4,4.6018793E4,7.52494E4,-6.915507E1,6.1973633E1,3.8027805E2,3.0941408E0],"split_indices":[0,0,2,3,2,0,0,0,0],"split_type":[0,0,0,0,0,0,0,0,0],"sum_hessian":[3.6E1,2E0,3.4E1,2.7E1,7E0,1.6E1,1.1E1,3E0,4E0],"tree_param":{"num_deleted":"0","num_feature":"7","num_nodes":"9","size_leaf_vector":"1"}},{"base_weights":[1.2134093E2,-1.9427458E2,2.9479575E2,-1.3909863E2,1.7765767E3,3.455439E1,-1.0460095E2,3.5175705E2,2.8466406E0],"categories":[],"categories_nodes":[],"categories_segments":[],"categories_sizes":[],"default_left":[0,0,0,0,0,0,0,0,0],"id":46,"left_children":[1,-1,3,5,7,-1,-1,-1,-1],"loss_changes":[1.3819669E7,0E0,2.2749896E7,1.2668215E7,2.4247458E7,0E0,0E0,0E0,0E0],"parents":[2147483647,0,0,2,2,3,3,4,4],"right_children":[2,-1,4,6,8,-1,-1,-1,-1],"split_conditions":[1.854249E4,-1.9427458E2,6.3133605E4,5.5205797E4,7.52494E4,3.455439E1,-1.0460095E2,3.5175705E2,2.8466406E0],"split_indices":[0,0,2,0,2,0,0,0,0],"split_type":[0,0,0,0,0,0,0,0,0],"sum_hessian":[3.6E1,2E0,3.4E1,2.7E1,7E0,1.8E1,9E0,3E0,4E0],"tree_param":{"num_deleted":"0","num_feature":"7","num_nodes":"9","size_leaf_vector":"1"}},{"base_weights":[1.11646904E2,-1.087171E3,3.7874622E2,-7.8197266E1,-2.4064037E2,3.7823828E2,1.3921223E2,-4.8681835E1,3.564896E1,-1.0165987E2,5.3518074E1],"categories":[],"categories_nodes":[],"categories_segments":[],"categories_sizes":[],"default_left":[0,0,0,0,0,0,0,0,0,0,0],"id":47,"left_children":[1,3,5,7,-1,-1,9,-1,-1,-1,-1],"loss_changes":[1.225929E7,9.129324E6,2.4747332E7,1.0616568E6,0E0,0E0,1.4274004E7,0E0,0E0,0E0,0E0],"parents":[2147483647,0,0,1,1,2,2,3,3,6,6],"right_children":[2,4,6,8,-1,-1,10,-1,-1,-1,-1],"split_conditions":[2.9675324E4,2.9210848E4,2.2978814E4,2.3644303E4,-2.4064037E2,3.7823828E2,3.760788E4,-4.8681835E1,3.564896E1,-1.0165987E2,5.3518074E1],"split_indices":[3,3,1,0,0,0,3,0,0,0,0],"split_type":[0,0,0,0,0,0,0,0,0,0,0],"sum_hessian":[3.6E1,6E0,3E1,4E0,2E0,1E0,2.9E1,2E0,2E0,7E0,2.2E1],"tree_param":{"num_deleted":"0","num_feature":"7","num_nodes":"11","size_leaf_vector":"1"}},{"base_weights":[1.02548035E2,-8.83827E1,1.6998223E3,3.717342E2,-9.629082E2,2.0432787E2,3.3472656E1,-2.223108E1,1.5133574E2,-1.26862114E2,3.7710415E1],"categories":[],"categories_nodes":[],"categories_segments":[],"categories_sizes":[],"default_left":[0,0,0,0,0,0,0,0,0,0,0],"id":48,"left_children":[1,3,5,7,9,-1,-1,-1,-1,-1,-1],"loss_changes":[1.1434078E7,1.4039001E7,1.191464E6,1.5934475E7,5.394311E6,0E0,0E0,0E0,0E0,0E0,0E0],"parents":[2147483647,0,0,1,1,2,2,3,3,4,4],"right_children":[2,4,6,8,10,-1,-1,-1,-1,-1,-1],"split_conditions":[6.928098E4,4.3476473E4,8.162352E4,4.2853402E4,5.6464914E4,2.0432787E2,3.3472656E1,-2.223108E1,1.5133574E2,-1.26862114E2,3.7710415E1],"split_indices":[3,0,0,3,3,0,0,0,0,0,0],"split_type":[0,0,0,0,0,0,0,0,0,0,0],"sum_hessian":[3.6E1,3.3E1,3E0,2.2E1,1.1E1,2E0,1E0,1.5E1,7E0,9E0,2E0],"tree_param":{"num_deleted":"0","num_feature":"7","num_nodes":"11","size_leaf_vector":"1"}},{"base_weights":[9.979986E1,-1.7482945E2,2.5535652E2,-9.536032E1,1.6718468E3,-5.6218636E1,5.2243988E1,3.8841458E2,1.0098047E0],"categories":[],"categories_nodes":[],"categories_segments":[],"categories_sizes":[],"default_left":[0,0,0,0,0,0,0,0,0],"id":49,"left_children":[1,-1,3,5,7,-1,-1,-1,-1],"loss_changes":[1.1083326E7,0E0,1.7546972E7,8.65746E6,2.569477E7,0E0,0E0,0E0,0E0],"parents":[2147483647,0,0,2,2,3,3,4,4],"right_children":[2,-1,4,6,8,-1,-1,-1,-1],"split_conditions":[1.854249E4,-1.7482945E2,6.8167055E4,4.6018793E4,7.52494E4,-5.6218636E1,5.2243988E1,3.8841458E2,1.0098047E0],"split_indices":[0,0,2,3,2,0,0,0,0],"split_type":[0,0,0,0,0,0,0,0,0],"sum_hessian":[3.6E1,2E0,3.4E1,2.8E1,6E0,1.6E1,1.2E1,2E0,4E0],"tree_param":{"num_deleted":"0","num_feature":"7","num_nodes":"9","size_leaf_vector":"1"}},{"base_weights":[9.5512825E1,-1.6317422E3,2.4083432E2,-4.668057E1,-1.9808076E2,-2.6213434E2,1.1121763E3,1.9029127E1,-1.13421875E2,3.4101718E2,6.3649563E1],"categories":[],"categories_nodes":[],"categories_segments":[],"categories_sizes":[],"default_left":[0,0,0,0,0,0,0,0,0,0,0],"id":50,"left_children":[1,3,5,-1,-1,7,9,-1,-1,-1,-1],"loss_changes":[9.680249E6,2.952645E5,1.5630557E7,0E0,0E0,9.290558E6,1.2039897E7,0E0,0E0,0E0,0E0],"parents":[2147483647,0,0,1,1,2,2,5,5,6,6],"right_children":[2,4,6,-1,-1,8,10,-1,-1,-1,-1],"split_conditions":[1.854249E4,1.8066957E4,3.9724484E4,-4.668057E1,-1.9808076E2,5.5205797E4,2.2978814E4,1.9029127E1,-1.13421875E2,3.4101718E2,6.3649563E1],"split_indices":[0,0,2,0,0,0,1,0,0,0,0],"split_type":[0,0,0,0,0,0,0,0,0,0,0],"sum_hessian":[3.6E1,2E0,3.4E1,1E0,1E0,2.2E1,1.2E1,1.5E1,7E0,1E0,1.1E1],"tree_param":{"num_deleted":"0","num_feature":"7","num_nodes":"11","size_leaf_vector":"1"}},{"base_weights":[8.77325E1,-1.5501553E3,2.2561624E2,-4.4346584E1,-1.8817671E2,-8.1594154E1,1.4661141E3,-7.0276695E1,3.3705406E1,3.4903152E2,-4.1629295E0],"categories":[],"categories_nodes":[],"categories_segments":[],"categories_sizes":[],"default_left":[0,0,0,0,0,0,0,0,0,0,0],"id":51,"left_children":[1,3,5,-1,-1,7,9,-1,-1,-1,-1],"loss_changes":[8.705749E6,2.66475E5,1.3457911E7,0E0,0E0,7.778403E6,2.150913E7,0E0,0E0,0E0,0E0],"parents":[2147483647,0,0,1,1,2,2,5,5,6,6],"right_children":[2,4,6,-1,-1,8,10,-1,-1,-1,-1],"split_conditions":[1.854249E4,1.8066957E4,6.8167055E4,-4.4346584E1,-1.8817671E2,3.760788E4,7.52494E4,-7.0276695E1,3.3705406E1,3.4903152E2,-4.1629295E0],"split_indices":[0,0,2,0,0,3,2,0,0,0,0],"split_type":[0,0,0,0,0,0,0,0,0,0,0],"sum_hessian":[3.6E1,2E0,3.4E1,1E0,1E0,2.8E1,6E0,1.1E1,1.7E1,2E0,4E0],"tree_param":{"num_deleted":"0","num_feature":"7","num_nodes":"11","size_leaf_vector":"1"}},{"base_weights":[8.100745E1,-8.856761E2,2.9667767E2,-2.5063712E2,-1.648849E2,-4.984057E1,2.1085405E3,-7.164812E1,2.987526E1,-5.0384167E1,7.723455E1,3.257628E2,2.5660679E1],"categories":[],"categories_nodes":[],"categories_segments":[],"categories_sizes":[],"default_left":[0,0,0,0,0,0,0,0,0,0,0,0,0],"id":52,"left_children":[1,3,5,7,-1,9,11,-1,-1,-1,-1,-1,-1],"loss_changes":[7.9767005E6,2.979248E6,1.9568242E7,1.4937002E6,0E0,1.0467522E7,9.804238E6,0E0,0E0,0E0,0E0,0E0,0E0],"parents":[2147483647,0,0,1,1,2,2,3,3,5,5,6,6],"right_children":[2,4,6,8,-1,10,12,-1,-1,-1,-1,-1,-1],"split_conditions":[3E0,7.7907664E4,6.919339E4,3.2339318E4,-1.648849E2,4.6018793E4,7.52494E4,-7.164812E1,2.987526E1,-5.0384167E1,7.723455E1,3.257628E2,2.5660679E1],"split_indices":[4,2,2,2,0,3,2,0,0,0,0,0,0],"split_type":[0,0,0,0,0,0,0,0,0,0,0,0,0],"sum_hessian":[3.6E1,6E0,3E1,4E0,2E0,2.6E1,4E0,2E0,2E0,1.7E1,9E0,2E0,2E0],"tree_param":{"num_deleted":"0","num_feature":"7","num_nodes":"13","size_leaf_vector":"1"}},{"base_weights":[7.7544655E1,-1.4008912E3,2.0205217E2,-3.9610058E1,-1.7052364E2,-2.203739E2,9.338789E2,6.518005E1,-6.4268776E1,2.9022678E2,5.279909E1],"categories":[],"categories_nodes":[],"categories_segments":[],"categories_sizes":[],"default_left":[0,0,0,0,0,0,0,0,0,0,0],"id":53,"left_children":[1,3,5,-1,-1,7,9,-1,-1,-1,-1],"loss_changes":[7.09388E6,2.41964E5,1.1025796E7,0E0,0E0,8.890525E6,8.853919E6,0E0,0E0,0E0,0E0],"parents":[2147483647,0,0,1,1,2,2,5,5,6,6],"right_children":[2,4,6,-1,-1,8,10,-1,-1,-1,-1],"split_conditions":[1.854249E4,1.8066957E4,3.9724484E4,-3.9610058E1,-1.7052364E2,2.3644303E4,2.2978814E4,6.518005E1,-6.4268776E1,2.9022678E2,5.279909E1],"split_indices":[0,0,2,0,0,2,1,0,0,0,0],"split_type":[0,0,0,0,0,0,0,0,0,0,0],"sum_hessian":[3.6E1,2E0,3.4E1,1E0,1E0,2.2E1,1.2E1,7E0,1.5E1,1E0,1.1E1],"tree_param":{"num_deleted":"0","num_feature":"7","num_nodes":"11","size_leaf_vector":"1"}},{"base_weights":[7.340652E1,-8.123599E2,2.7105035E2,9.101485E1,-2.0471979E2,2.082791E3,2.5498745E0,-2.4688673E1,3.9857815E1,2.5356004E2,3.6218166E1,-1.0784875E2,3.464004E1],"categories":[],"categories_nodes":[],"categories_segments":[],"categories_sizes":[],"default_left":[0,0,0,0,0,0,0,0,0,0,0,0,0],"id":54,"left_children":[1,3,5,7,-1,9,11,-1,-1,-1,-1,-1,-1],"loss_changes":[6.6976425E6,7.9949755E6,1.5074739E7,6.1803425E5,0E0,2.198084E6,1.0781616E7,0E0,0E0,0E0,0E0,0E0,0E0],"parents":[2147483647,0,0,1,1,2,2,3,3,5,5,6,6],"right_children":[2,4,6,8,-1,10,12,-1,-1,-1,-1,-1,-1],"split_conditions":[2.9675324E4,2.9210848E4,2.3644303E4,2.3644303E4,-2.0471979E2,2.9959531E4,3.760788E4,-2.4688673E1,3.9857815E1,2.5356004E2,3.6218166E1,-1.0784875E2,3.464004E1],"split_indices":[3,3,1,0,0,0,3,0,0,0,0,0,0],"split_type":[0,0,0,0,0,0,0,0,0,0,0,0,0],"sum_hessian":[3.6E1,6E0,3E1,4E0,2E0,3E0,2.7E1,2E0,2E0,2E0,1E0,6E0,2.1E1],"tree_param":{"num_deleted":"0","num_feature":"7","num_nodes":"13","size_leaf_vector":"1"}},{"base_weights":[6.6795845E1,-8.158724E2,2.639533E2,-2.5705234E2,-1.4752817E2,-3.1525826E1,1.80675E3,-6.489629E1,2.2054232E1,-3.809206E1,8.459019E1,2.8300443E2,1.8120573E1],"categories":[],"categories_nodes":[],"categories_segments":[],"categories_sizes":[],"default_left":[0,0,0,0,0,0,0,0,0,0,0,0,0],"id":55,"left_children":[1,3,5,7,-1,9,11,-1,-1,-1,-1,-1,-1],"loss_changes":[6.6542625E6,2.2002135E6,1.4188751E7,1.0789958E6,0E0,8.599575E6,7.804228E6,0E0,0E0,0E0,0E0,0E0,0E0],"parents":[2147483647,0,0,1,1,2,2,3,3,5,5,6,6],"right_children":[2,4,6,8,-1,10,12,-1,-1,-1,-1,-1,-1],"split_conditions":[3E0,7.7907664E4,6.919339E4,3.2339318E4,-1.4752817E2,4.7507535E4,7.52494E4,-6.489629E1,2.2054232E1,-3.809206E1,8.459019E1,2.8300443E2,1.8120573E1],"split_indices":[4,2,2,2,0,3,2,0,0,0,0,0,0],"split_type":[0,0,0,0,0,0,0,0,0,0,0,0,0],"sum_hessian":[3.6E1,6E0,3E1,4E0,2E0,2.6E1,4E0,2E0,2E0,1.9E1,7E0,2E0,2E0],"tree_param":{"num_deleted":"0","num_feature":"7","num_nodes":"13","size_leaf_vector":"1"}},{"base_weights":[6.436634E1,-7.61481E2,2.4877167E2,-2.3991562E2,-1.3769298E2,-2.6651041E1,1.6863E3,-6.0569855E1,2.058392E1,3.0094746E1,-8.423159E1,2.641374E2,1.691263E1],"categories":[],"categories_nodes":[],"categories_segments":[],"categories_sizes":[],"default_left":[0,0,0,0,0,0,0,0,0,0,0,0,0],"id":56,"left_children":[1,3,5,7,-1,9,11,-1,-1,-1,-1,-1,-1],"loss_changes":[5.824189E6,1.91663E6,1.2318708E7,9.399241E5,0E0,7.468179E6,6.79834E6,0E0,0E0,0E0,0E0,0E0,0E0],"parents":[2147483647,0,0,1,1,2,2,3,3,5,5,6,6],"right_children":[2,4,6,8,-1,10,12,-1,-1,-1,-1,-1,-1],"split_conditions":[3E0,7.7907664E4,6.919339E4,3.2339318E4,-1.3769298E2,5.5205797E4,7.52494E4,-6.0569855E1,2.058392E1,3.0094746E1,-8.423159E1,2.641374E2,1.691263E1],"split_indices":[4,2,2,2,0,0,2,0,0,0,0,0,0],"split_type":[0,0,0,0,0,0,0,0,0,0,0,0,0],"sum_hessian":[3.6E1,6E0,3E1,4E0,2E0,2.6E1,4E0,2E0,2E0,1.9E1,7E0,2E0,2E0],"tree_param":{"num_deleted":"0","num_feature":"7","num_nodes":"13","size_leaf_vector":"1"}},{"base_weights":[5.926056E1,-7.350148E2,2.3670143E2,9.13457E1,-1.8672774E2,1.8141719E3,2.89488E0,-3.5995216E1,2.9415821E1,2.1868477E2,3.4807228E1,1.1974062E2,-2.4608229E1],"categories":[],"categories_nodes":[],"categories_segments":[],"categories_sizes":[],"default_left":[0,0,0,0,0,0,0,0,0,0,0,0,0],"id":57,"left_children":[1,3,5,7,-1,9,11,-1,-1,-1,-1,-1,-1],"loss_changes":[5.388645E6,6.720167E6,1.1428258E7,5.6352706E5,0E0,1.424339E6,8.62203E6,0E0,0E0,0E0,0E0,0E0,0E0],"parents":[2147483647,0,0,1,1,2,2,3,3,5,5,6,6],"right_children":[2,4,6,8,-1,10,12,-1,-1,-1,-1,-1,-1],"split_conditions":[2.9675324E4,2.9210848E4,2.3644303E4,1.8066957E4,-1.8672774E2,2.9959531E4,2.3644303E4,-3.5995216E1,2.9415821E1,2.1868477E2,3.4807228E1,1.1974062E2,-2.4608229E1],"split_indices":[3,3,1,0,0,0,2,0,0,0,0,0,0],"split_type":[0,0,0,0,0,0,0,0,0,0,0,0,0],"sum_hessian":[3.6E1,6E0,3E1,4E0,2E0,3E0,2.7E1,1E0,3E0,2E0,1E0,4E0,2.3E1],"tree_param":{"num_deleted":"0","num_feature":"7","num_nodes":"13","size_leaf_vector":"1"}},{"base_weights":[5.7532753E1,-1.1687262E3,1.6099687E2,-3.419541E1,-1.4111353E2,-2.1291432E2,7.3707184E2,5.905476E1,-6.272331E1,2.2474629E2,4.4800617E1],"categories":[],"categories_nodes":[],"categories_segments":[],"categories_sizes":[],"default_left":[0,0,0,0,0,0,0,0,0,0,0],"id":58,"left_children":[1,3,5,-1,-1,7,9,-1,-1,-1,-1],"loss_changes":[4.8824925E6,1.187075E5,7.695964E6,0E0,0E0,7.693977E6,5.1055545E6,0E0,0E0,0E0,0E0],"parents":[2147483647,0,0,1,1,2,2,5,5,6,6],"right_children":[2,4,6,-1,-1,8,10,-1,-1,-1,-1],"split_conditions":[1.854249E4,1.8066957E4,3.8679766E4,-3.419541E1,-1.4111353E2,2.3644303E4,2.2978814E4,5.905476E1,-6.272331E1,2.2474629E2,4.4800617E1],"split_indices":[0,0,2,0,0,2,1,0,0,0,0],"split_type":[0,0,0,0,0,0,0,0,0,0,0],"sum_hessian":[3.6E1,2E0,3.4E1,1E0,1E0,2.1E1,1.3E1,7E0,1.4E1,1E0,1.2E1],"tree_param":{"num_deleted":"0","num_feature":"7","num_nodes":"11","size_leaf_vector":"1"}},{"base_weights":[5.4227856E1,-2.494624E2,4.6841272E2,5.9307227E2,-1.0009973E3,1.1122997E3,-3.1451172E2,-2.7632456E1,1.3636237E2,-1.6789334E2,-4.521626E1,-3.0875196E1,2.3108914E2,-6.94446E1,5.5019405E1],"categories":[],"categories_nodes":[],"categories_segments":[],"categories_sizes":[],"default_left":[0,0,0,0,0,0,0,0,0,0,0,0,0,0,0],"id":59,"left_children":[1,3,5,7,9,11,13,-1,-1,-1,-1,-1,-1,-1,-1],"loss_changes":[4.770856E6,1.4523937E7,8.415668E6,7.745867E6,3.705746E6,1.6042839E7,3.0103305E6,0E0,0E0,0E0,0E0,0E0,0E0,0E0,0E0],"parents":[2147483647,0,0,1,1,2,2,3,3,4,4,5,5,6,6],"right_children":[2,4,6,8,10,12,14,-1,-1,-1,-1,-1,-1,-1,-1],"split_conditions":[4.6018793E4,3.0542201E4,6.3133605E4,2.9237791E4,3.5585652E4,3.2339318E4,6.928098E4,-2.7632456E1,1.3636237E2,-1.6789334E2,-4.521626E1,-3.0875196E1,2.3108914E2,-6.94446E1,5.5019405E1],"split_indices":[3,1,1,3,3,1,3,0,0,0,0,0,0,0,0],"split_type":[0,0,0,0,0,0,0,0,0,0,0,0,0,0,0],"sum_hessian":[3.6E1,2.1E1,1.5E1,1E1,1.1E1,8E0,7E0,5E0,5E0,4E0,7E0,4E0,4E0,5E0,2E0],"tree_param":{"num_deleted":"0","num_feature":"7","num_nodes":"15","size_leaf_vector":"1"}},{"base_weights":[5.100549E1,-2.0342888E2,4.8353543E2,1.2870743E2,-1.4912883E3,1.2926283E3,-2.848628E2,8.7804924E1,-4.440246E1,-1.6896582E2,-3.489043E1,2.027422E1,2.0593575E2,-6.365749E1,5.1351562E1],"categories":[],"categories_nodes":[],"categories_segments":[],"categories_sizes":[],"default_left":[0,0,0,0,0,0,0,0,0,0,0,0,0,0,0],"id":60,"left_children":[1,3,5,7,9,11,13,-1,-1,-1,-1,-1,-1,-1,-1],"loss_changes":[4.1702328E6,1.0457817E7,9.072099E6,8.973316E6,5.43543E5,5.432014E6,2.5732858E6,0E0,0E0,0E0,0E0,0E0,0E0,0E0,0E0],"parents":[2147483647,0,0,1,1,2,2,3,3,4,4,5,5,6,6],"right_children":[2,4,6,8,10,12,14,-1,-1,-1,-1,-1,-1,-1,-1],"split_conditions":[4.7507535E4,5.5205797E4,6.3133605E4,2.9959531E4,3.832078E4,3.2339318E4,6.928098E4,8.7804924E1,-4.440246E1,-1.6896582E2,-3.489043E1,2.027422E1,2.0593575E2,-6.365749E1,5.1351562E1],"split_indices":[3,0,1,1,1,1,3,0,0,0,0,0,0,0,0],"split_type":[0,0,0,0,0,0,0,0,0,0,0,0,0,0,0],"sum_hessian":[3.6E1,2.3E1,1.3E1,1.9E1,4E0,6E0,7E0,8E0,1.1E1,3E0,1E0,3E0,3E0,5E0,2E0],"tree_param":{"num_deleted":"0","num_feature":"7","num_nodes":"15","size_leaf_vector":"1"}},{"base_weights":[4.7349556E1,-6.466786E2,2.0253818E2,5.78125E1,-1.6052708E2,1.4727324E3,1.3848353E1,-3.549424E1,2.4973682E1,1.8376054E2,1.8905664E1,-9.655352E1,2.6873762E1],"categories":[],"categories_nodes":[],"categories_segments":[],"categories_sizes":[],"default_left":[0,0,0,0,0,0,0,0,0,0,0,0,0],"id":61,"left_children":[1,3,5,7,-1,9,11,-1,-1,-1,-1,-1,-1],"loss_changes":[4.1160722E6,4.820043E6,7.40946E6,4.8473066E5,0E0,1.526103E6,7.249236E6,0E0,0E0,0E0,0E0,0E0,0E0],"parents":[2147483647,0,0,1,1,2,2,3,3,5,5,6,6],"right_children":[2,4,6,8,-1,10,12,-1,-1,-1,-1,-1,-1],"split_conditions":[2.9675324E4,2.9210848E4,2.3644303E4,1.8066957E4,-1.6052708E2,2.9959531E4,3.6195824E4,-3.549424E1,2.4973682E1,1.8376054E2,1.8905664E1,-9.655352E1,2.6873762E1],"split_indices":[3,3,1,0,0,0,3,0,0,0,0,0,0],"split_type":[0,0,0,0,0,0,0,0,0,0,0,0,0],"sum_hessian":[3.6E1,6E0,3E1,4E0,2E0,3E0,2.7E1,1E0,3E0,2E0,1E0,5E0,2.2E1],"tree_param":{"num_deleted":"0","num_feature":"7","num_nodes":"13","size_leaf_vector":"1"}},{"base_weights":[4.1585438E1,-1.0155654E2,1.3101021E2,-2.0263002E2,5.893725E2,5.1499756E1,-5.9822937E1,1.931125E2,3.5559555E1],"categories":[],"categories_nodes":[],"categories_segments":[],"categories_sizes":[],"default_left":[0,0,0,0,0,0,0,0,0],"id":62,"left_children":[1,-1,3,5,7,-1,-1,-1,-1],"loss_changes":[3.630862E6,0E0,5.4719085E6,6.2698395E6,4.0183625E6,0E0,0E0,0E0,0E0],"parents":[2147483647,0,0,2,2,3,3,4,4],"right_children":[2,-1,4,6,8,-1,-1,-1,-1],"split_conditions":[1.854249E4,-1.0155654E2,3.832078E4,2.3644303E4,2.2978814E4,5.1499756E1,-5.9822937E1,1.931125E2,3.5559555E1],"split_indices":[0,0,2,2,1,0,0,0,0],"split_type":[0,0,0,0,0,0,0,0,0],"sum_hessian":[3.6E1,2E0,3.4E1,2E1,1.4E1,7E0,1.3E1,1E0,1.3E1],"tree_param":{"num_deleted":"0","num_feature":"7","num_nodes":"9","size_leaf_vector":"1"}},{"base_weights":[4.0637062E1,-2.224047E2,3.9977966E2,4.1462988E2,-8.971329E2,2.0722578E2,1.501306E2,1.1876563E1,1.8345683E2,-1.6965645E2,-3.8527554E1,1.193099E2,-1.0210292E1],"categories":[],"categories_nodes":[],"categories_segments":[],"categories_sizes":[],"default_left":[0,0,0,0,0,0,0,0,0,0,0,0,0],"id":63,"left_children":[1,3,5,7,9,-1,11,-1,-1,-1,-1,-1,-1],"loss_changes":[3.5842842E6,9.828132E6,6.3694125E6,4.8234245E6,3.8475E6,0E0,4.0678925E6,0E0,0E0,0E0,0E0,0E0,0E0],"parents":[2147483647,0,0,1,1,2,2,3,3,4,4,6,6],"right_children":[2,4,6,8,10,-1,12,-1,-1,-1,-1,-1,-1],"split_conditions":[4.6018793E4,3.3781543E4,2.3599373E4,6.919339E4,3.832078E4,2.0722578E2,3.1011738E4,1.1876563E1,1.8345683E2,-1.6965645E2,-3.8527554E1,1.193099E2,-1.0210292E1],"split_indices":[3,1,2,2,1,0,0,0,0,0,0,0,0],"split_type":[0,0,0,0,0,0,0,0,0,0,0,0,0],"sum_hessian":[3.6E1,2.1E1,1.5E1,1.1E1,1E1,1E0,1.4E1,1E1,1E0,3E0,7E0,2E0,1.2E1],"tree_param":{"num_deleted":"0","num_feature":"7","num_nodes":"13","size_leaf_vector":"1"}},{"base_weights":[4.4775627E1,-5.7888586E2,1.8415805E2,5.5291016E1,-1.4428854E2,1.278126E3,2.1299839E1,-2.9235449E1,2.1529102E1,1.6055573E2,1.4791602E1,-8.282137E1,2.4198599E1],"categories":[],"categories_nodes":[],"categories_segments":[],"categories_sizes":[],"default_left":[0,0,0,0,0,0,0,0,0,0,0,0,0],"id":64,"left_children":[1,3,5,7,-1,9,11,-1,-1,-1,-1,-1,-1],"loss_changes":[3.322922E6,3.915278E6,5.495787E6,3.4105772E5,0E0,1.242777E6,5.449741E6,0E0,0E0,0E0,0E0,0E0,0E0],"parents":[2147483647,0,0,1,1,2,2,3,3,5,5,6,6],"right_children":[2,4,6,8,-1,10,12,-1,-1,-1,-1,-1,-1],"split_conditions":[2.9675324E4,2.9210848E4,2.3644303E4,1.8066957E4,-1.4428854E2,2.9959531E4,3.6195824E4,-2.9235449E1,2.1529102E1,1.6055573E2,1.4791602E1,-8.282137E1,2.4198599E1],"split_indices":[3,3,1,0,0,0,3,0,0,0,0,0,0],"split_type":[0,0,0,0,0,0,0,0,0,0,0,0,0],"sum_hessian":[3.6E1,6E0,3E1,4E0,2E0,3E0,2.7E1,1E0,3E0,2E0,1E0,5E0,2.2E1],"tree_param":{"num_deleted":"0","num_feature":"7","num_nodes":"13","size_leaf_vector":"1"}},{"base_weights":[3.934544E1,-6.0976562E1,8.822461E2,2.5382727E2,-6.592692E2,1.1351797E2,6.1722655E0,-1.2138989E1,9.725332E1,-1.0307068E2,-1.160472E1],"categories":[],"categories_nodes":[],"categories_segments":[],"categories_sizes":[],"default_left":[0,0,0,0,0,0,0,0,0,0,0],"id":65,"left_children":[1,3,5,7,9,-1,-1,-1,-1,-1,-1],"loss_changes":[3.1825712E6,6.571064E6,7.6008525E5,6.320484E6,2.301666E6,0E0,0E0,0E0,0E0,0E0,0E0],"parents":[2147483647,0,0,1,1,2,2,3,3,4,4],"right_children":[2,4,6,8,10,-1,-1,-1,-1,-1,-1],"split_conditions":[6.928098E4,4.3476473E4,8.162352E4,4.2853402E4,5.3106207E4,1.1351797E2,6.1722655E0,-1.2138989E1,9.725332E1,-1.0307068E2,-1.160472E1],"split_indices":[3,0,0,3,3,0,0,0,0,0,0],"split_type":[0,0,0,0,0,0,0,0,0,0,0],"sum_hessian":[3.6E1,3.3E1,3E0,2.2E1,1.1E1,2E0,1E0,1.5E1,7E0,6E0,5E0],"tree_param":{"num_deleted":"0","num_feature":"7","num_nodes":"11","size_leaf_vector":"1"}},{"base_weights":[3.784734E1,-5.4278937E2,1.6773796E2,-1.5865976E2,-1.0020755E2,-2.2410374E1,1.1609915E3,-3.9798504E1,1.3355208E1,-2.730757E1,6.070542E1,1.7907838E2,1.4420183E1],"categories":[],"categories_nodes":[],"categories_segments":[],"categories_sizes":[],"default_left":[0,0,0,0,0,0,0,0,0,0,0,0,0],"id":66,"left_children":[1,3,5,7,-1,9,11,-1,-1,-1,-1,-1,-1],"loss_changes":[2.881559E6,1.0759886E6,5.880849E6,4.0282016E5,0E0,4.425965E6,2.9435975E6,0E0,0E0,0E0,0E0,0E0,0E0],"parents":[2147483647,0,0,1,1,2,2,3,3,5,5,6,6],"right_children":[2,4,6,8,-1,10,12,-1,-1,-1,-1,-1,-1],"split_conditions":[3E0,7.7907664E4,6.919339E4,3.2339318E4,-1.0020755E2,4.7507535E4,7.52494E4,-3.9798504E1,1.3355208E1,-2.730757E1,6.070542E1,1.7907838E2,1.4420183E1],"split_indices":[4,2,2,2,0,3,2,0,0,0,0,0,0],"split_type":[0,0,0,0,0,0,0,0,0,0,0,0,0],"sum_hessian":[3.6E1,6E0,3E1,4E0,2E0,2.6E1,4E0,2E0,2E0,1.9E1,7E0,2E0,2E0],"tree_param":{"num_deleted":"0","num_feature":"7","num_nodes":"13","size_leaf_vector":"1"}},{"base_weights":[3.6772144E1,1.9473283E2,-4.09195E2,-6.7348366E1,9.9059766E2,-6.5982336E2,3.9554556E2,2.511542E1,-1.2004879E2,2.6460938E1,1.8703789E2,-1.0942061E2,-3.3266148E1,5.4135937E1,5.1958985E0],"categories":[],"categories_nodes":[],"categories_segments":[],"categories_sizes":[],"default_left":[0,0,0,0,0,0,0,0,0,0,0,0,0,0,0],"id":67,"left_children":[1,3,5,7,9,11,13,-1,-1,-1,-1,-1,-1,-1,-1],"loss_changes":[2.6861592E6,5.9069895E6,2.2778985E6,8.24148E6,3.9760565E6,7.729075E5,1.2217053E5,0E0,0E0,0E0,0E0,0E0,0E0,0E0,0E0],"parents":[2147483647,0,0,1,1,2,2,3,3,4,4,5,5,6,6],"right_children":[2,4,6,8,10,12,14,-1,-1,-1,-1,-1,-1,-1,-1],"split_conditions":[6.3133605E4,4.7507535E4,6.928098E4,5.5205797E4,3.415447E4,6.919339E4,6.3133605E4,2.511542E1,-1.2004879E2,2.6460938E1,1.8703789E2,-1.0942061E2,-3.3266148E1,5.4135937E1,5.1958985E0],"split_indices":[1,3,3,0,1,1,0,0,0,0,0,0,0,0,0],"split_type":[0,0,0,0,0,0,0,0,0,0,0,0,0,0,0],"sum_hessian":[3.6E1,2.7E1,9E0,2.1E1,6E0,7E0,2E0,1.7E1,4E0,4E0,2E0,2E0,5E0,1E0,1E0],"tree_param":{"num_deleted":"0","num_feature":"7","num_nodes":"15","size_leaf_vector":"1"}},{"base_weights":[3.4045925E1,-4.9669867E2,1.5279323E2,5.968633E1,-1.2584408E2,1.1760352E3,1.1589006E0,-2.7057129E1,2.0989355E1,1.43928E2,1.9315039E1,8.7186295E1,-1.8028606E1],"categories":[],"categories_nodes":[],"categories_segments":[],"categories_sizes":[],"default_left":[0,0,0,0,0,0,0,0,0,0,0,0,0],"id":68,"left_children":[1,3,5,7,-1,9,11,-1,-1,-1,-1,-1,-1],"loss_changes":[2.407798E6,3.041865E6,4.8085535E6,3.048266E5,0E0,7.56959E5,4.5807605E6,0E0,0E0,0E0,0E0,0E0,0E0],"parents":[2147483647,0,0,1,1,2,2,3,3,5,5,6,6],"right_children":[2,4,6,8,-1,10,12,-1,-1,-1,-1,-1,-1],"split_conditions":[2.9675324E4,2.9210848E4,2.3644303E4,1.8066957E4,-1.2584408E2,2.9959531E4,2.3644303E4,-2.7057129E1,2.0989355E1,1.43928E2,1.9315039E1,8.7186295E1,-1.8028606E1],"split_indices":[3,3,1,0,0,0,2,0,0,0,0,0,0],"split_type":[0,0,0,0,0,0,0,0,0,0,0,0,0],"sum_hessian":[3.6E1,6E0,3E1,4E0,2E0,3E0,2.7E1,1E0,3E0,2E0,1E0,4E0,2.3E1],"tree_param":{"num_deleted":"0","num_feature":"7","num_nodes":"13","size_leaf_vector":"1"}},{"base_weights":[3.3357555E1,-8.078968E1,1.04512E2,-1.543694E2,5.038605E2,4.315034E1,-4.565436E1,1.0127517E2,1.0861524E1],"categories":[],"categories_nodes":[],"categories_segments":[],"categories_sizes":[],"default_left":[0,0,0,0,0,0,0,0,0],"id":69,"left_children":[1,-1,3,5,7,-1,-1,-1,-1],"loss_changes":[2.2992175E6,0E0,3.696217E6,4.0917845E6,2.7059155E6,0E0,0E0,0E0,0E0],"parents":[2147483647,0,0,2,2,3,3,4,4],"right_children":[2,-1,4,6,8,-1,-1,-1,-1],"split_conditions":[1.854249E4,-8.078968E1,3.8679766E4,2.3644303E4,3.1011738E4,4.315034E1,-4.565436E1,1.0127517E2,1.0861524E1],"split_indices":[0,0,2,2,0,0,0,0,0],"split_type":[0,0,0,0,0,0,0,0,0],"sum_hessian":[3.6E1,2E0,3.4E1,2.1E1,1.3E1,7E0,1.4E1,5E0,8E0],"tree_param":{"num_deleted":"0","num_feature":"7","num_nodes":"9","size_leaf_vector":"1"}},{"base_weights":[3.0802206E1,-1.7489862E2,3.117157E2,3.9944336E2,-6.868039E2,1.718877E2,1.0331315E2,-1.7329786E1,9.0561066E1,-1.14154175E2,-3.167422E1,9.9775E1,-1.1104252E1],"categories":[],"categories_nodes":[],"categories_segments":[],"categories_sizes":[],"default_left":[0,0,0,0,0,0,0,0,0,0,0,0,0],"id":70,"left_children":[1,3,5,7,9,-1,11,-1,-1,-1,-1,-1,-1],"loss_changes":[2.1925318E6,6.74253E6,4.514513E6,3.3458725E6,1.657799E6,0E0,2.986707E6,0E0,0E0,0E0,0E0,0E0,0E0],"parents":[2147483647,0,0,1,1,2,2,3,3,4,4,6,6],"right_children":[2,4,6,8,10,-1,12,-1,-1,-1,-1,-1,-1],"split_conditions":[4.6018793E4,3.0542201E4,2.3599373E4,2.9237791E4,3.832078E4,1.718877E2,3.1011738E4,-1.7329786E1,9.0561066E1,-1.14154175E2,-3.167422E1,9.9775E1,-1.1104252E1],"split_indices":[3,1,2,3,1,0,0,0,0,0,0,0,0],"split_type":[0,0,0,0,0,0,0,0,0,0,0,0,0],"sum_hessian":[3.6E1,2.1E1,1.5E1,1E1,1.1E1,1E0,1.4E1,5E0,5E0,4E0,7E0,2E0,1.2E1],"tree_param":{"num_deleted":"0","num_feature":"7","num_nodes":"13","size_leaf_vector":"1"}},{"base_weights":[3.2801575E1,-4.9822094E1,7.2690234E2,1.8987798E2,-5.0509537E2,9.302058E1,5.8496094E0,-1.1696546E1,7.798301E1,-8.0210075E1,-7.440658E0],"categories":[],"categories_nodes":[],"categories_segments":[],"categories_sizes":[],"default_left":[0,0,0,0,0,0,0,0,0,0,0],"id":71,"left_children":[1,3,5,7,9,-1,-1,-1,-1,-1,-1],"loss_changes":[2.1581342E6,3.8062935E6,4.8914375E5,4.25474E6,1.475321E6,0E0,0E0,0E0,0E0,0E0,0E0],"parents":[2147483647,0,0,1,1,2,2,3,3,4,4],"right_children":[2,4,6,8,10,-1,-1,-1,-1,-1,-1],"split_conditions":[6.928098E4,4.3476473E4,8.162352E4,4.2853402E4,5.3106207E4,9.302058E1,5.8496094E0,-1.1696546E1,7.798301E1,-8.0210075E1,-7.440658E0],"split_indices":[3,0,0,3,3,0,0,0,0,0,0],"split_type":[0,0,0,0,0,0,0,0,0,0,0],"sum_hessian":[3.6E1,3.3E1,3E0,2.2E1,1.1E1,2E0,1E0,1.5E1,7E0,6E0,5E0],"tree_param":{"num_deleted":"0","num_feature":"7","num_nodes":"11","size_leaf_vector":"1"}},{"base_weights":[3.161579E1,-7.299046E2,9.598566E1,-2.0213379E1,-8.9272316E1,-1.5657301E2,4.4316876E2,3.77125E1,-4.5035954E1,9.048802E1,1.21825E1],"categories":[],"categories_nodes":[],"categories_segments":[],"categories_sizes":[],"default_left":[0,0,0,0,0,0,0,0,0,0,0],"id":72,"left_children":[1,3,5,-1,-1,7,9,-1,-1,-1,-1],"loss_changes":[1.8837624E6,7.7343E4,3.138332E6,0E0,0E0,3.4625008E6,2.1152842E6,0E0,0E0,0E0,0E0],"parents":[2147483647,0,0,1,1,2,2,5,5,6,6],"right_children":[2,4,6,-1,-1,8,10,-1,-1,-1,-1],"split_conditions":[1.854249E4,1.8066957E4,3.832078E4,-2.0213379E1,-8.9272316E1,2.3644303E4,3.1011738E4,3.77125E1,-4.5035954E1,9.048802E1,1.21825E1],"split_indices":[0,0,2,0,0,2,0,0,0,0,0],"split_type":[0,0,0,0,0,0,0,0,0,0,0],"sum_hessian":[3.6E1,2E0,3.4E1,1E0,1E0,2E1,1.4E1,7E0,1.3E1,5E0,9E0],"tree_param":{"num_deleted":"0","num_feature":"7","num_nodes":"11","size_leaf_vector":"1"}},{"base_weights":[2.8072582E1,-4.9932503E1,6.8409766E2,1.6526808E2,-4.5823926E2,8.791433E1,4.948047E0,4.2291485E1,-4.8405525E1,-7.347369E1,-5.9285483E0],"categories":[],"categories_nodes":[],"categories_segments":[],"categories_sizes":[],"default_left":[0,0,0,0,0,0,0,0,0,0,0],"id":73,"left_children":[1,3,5,7,9,-1,-1,-1,-1,-1,-1],"loss_changes":[1.9275704E6,3.0632395E6,4.5161688E5,4.0525235E6,1.2801578E6,0E0,0E0,0E0,0E0,0E0,0E0],"parents":[2147483647,0,0,1,1,2,2,3,3,4,4],"right_children":[2,4,6,8,10,-1,-1,-1,-1,-1,-1],"split_conditions":[6.928098E4,4.3476473E4,8.162352E4,5.5205797E4,5.3106207E4,8.791433E1,4.948047E0,4.2291485E1,-4.8405525E1,-7.347369E1,-5.9285483E0],"split_indices":[3,0,0,1,3,0,0,0,0,0,0],"split_type":[0,0,0,0,0,0,0,0,0,0,0],"sum_hessian":[3.6E1,3.3E1,3E0,2.2E1,1.1E1,2E0,1E0,1.6E1,6E0,6E0,5E0],"tree_param":{"num_deleted":"0","num_feature":"7","num_nodes":"11","size_leaf_vector":"1"}},{"base_weights":[2.5463867E1,-4.472436E2,1.3138284E2,2.570547E1,-1.08641075E2,1.008959E3,1.3225795E0,-2.1317286E1,1.3871826E1,1.2288633E2,1.7462305E1,-6.0631294E1,1.9460104E1],"categories":[],"categories_nodes":[],"categories_segments":[],"categories_sizes":[],"default_left":[0,0,0,0,0,0,0,0,0,0,0,0,0],"id":74,"left_children":[1,3,5,7,-1,9,11,-1,-1,-1,-1,-1,-1],"loss_changes":[1.9113016E6,2.1439812E6,3.536937E6,1.6455248E5,0E0,5.193085E5,3.406389E6,0E0,0E0,0E0,0E0,0E0,0E0],"parents":[2147483647,0,0,1,1,2,2,3,3,5,5,6,6],"right_children":[2,4,6,8,-1,10,12,-1,-1,-1,-1,-1,-1],"split_conditions":[2.9675324E4,2.9210848E4,2.3644303E4,1.8066957E4,-1.08641075E2,2.9959531E4,3.760788E4,-2.1317286E1,1.3871826E1,1.2288633E2,1.7462305E1,-6.0631294E1,1.9460104E1],"split_indices":[3,3,1,0,0,0,3,0,0,0,0,0,0],"split_type":[0,0,0,0,0,0,0,0,0,0,0,0,0],"sum_hessian":[3.6E1,6E0,3E1,4E0,2E0,3E0,2.7E1,1E0,3E0,2E0,1E0,6E0,2.1E1],"tree_param":{"num_deleted":"0","num_feature":"7","num_nodes":"13","size_leaf_vector":"1"}},{"base_weights":[2.2460014E1,-4.1910297E2,1.2144327E2,2.1646093E1,-1.0139837E2,9.431504E2,-2.8072685E-1,-2.0251465E1,1.2831494E1,1.14693886E2,1.6589258E1,6.883594E1,-1.4373572E1],"categories":[],"categories_nodes":[],"categories_segments":[],"categories_sizes":[],"default_left":[0,0,0,0,0,0,0,0,0,0,0,0,0],"id":75,"left_children":[1,3,5,7,-1,9,11,-1,-1,-1,-1,-1,-1],"loss_changes":[1.6680688E6,1.8573008E6,3.1009305E6,1.455405E5,0E0,4.43316E5,2.86503E6,0E0,0E0,0E0,0E0,0E0,0E0],"parents":[2147483647,0,0,1,1,2,2,3,3,5,5,6,6],"right_children":[2,4,6,8,-1,10,12,-1,-1,-1,-1,-1,-1],"split_conditions":[2.9675324E4,2.9210848E4,2.3644303E4,1.8066957E4,-1.0139837E2,2.9959531E4,2.3644303E4,-2.0251465E1,1.2831494E1,1.14693886E2,1.6589258E1,6.883594E1,-1.4373572E1],"split_indices":[3,3,1,0,0,0,2,0,0,0,0,0,0],"split_type":[0,0,0,0,0,0,0,0,0,0,0,0,0],"sum_hessian":[3.6E1,6E0,3E1,4E0,2E0,3E0,2.7E1,1E0,3E0,2E0,1E0,4E0,2.3E1],"tree_param":{"num_deleted":"0","num_feature":"7","num_nodes":"13","size_leaf_vector":"1"}},{"base_weights":[2.2293497E1,-5.045577E1,6.3508887E2,1.1668297E2,-4.6325702E2,8.1714325E1,4.446289E0,3.6385406E1,-4.5403736E1,-7.978906E1,3.0954688E0],"categories":[],"categories_nodes":[],"categories_segments":[],"categories_sizes":[],"default_left":[0,0,0,0,0,0,0,0,0,0,0],"id":76,"left_children":[1,3,5,7,9,-1,-1,-1,-1,-1,-1],"loss_changes":[1.6815191E6,2.3998868E6,3.937715E5,3.6918425E6,1.678497E6,0E0,0E0,0E0,0E0,0E0,0E0],"parents":[2147483647,0,0,1,1,2,2,3,3,4,4],"right_children":[2,4,6,8,10,-1,-1,-1,-1,-1,-1],"split_conditions":[6.928098E4,5.5205797E4,8.162352E4,5.5205797E4,3.415447E4,8.1714325E1,4.446289E0,3.6385406E1,-4.5403736E1,-7.978906E1,3.0954688E0],"split_indices":[3,0,0,1,2,0,0,0,0,0,0],"split_type":[0,0,0,0,0,0,0,0,0,0,0],"sum_hessian":[3.6E1,3.3E1,3E0,2.4E1,9E0,2E0,1E0,1.7E1,7E0,5E0,4E0],"tree_param":{"num_deleted":"0","num_feature":"7","num_nodes":"11","size_leaf_vector":"1"}},{"base_weights":[2.0076727E1,-1.650787E2,2.7341064E2,2.932209E2,-5.714301E2,1.4915977E2,9.275833E1,-4.7541504E0,9.014404E1,-9.202424E1,-1.908153E1,8.082578E1,-7.9492188E0],"categories":[],"categories_nodes":[],"categories_segments":[],"categories_sizes":[],"default_left":[0,0,0,0,0,0,0,0,0,0,0,0,0],"id":77,"left_children":[1,3,5,7,9,-1,11,-1,-1,-1,-1,-1,-1],"loss_changes":[1.7806619E6,4.26463E6,3.3827345E6,2.3226975E6,1.4175612E6,0E0,1.9129275E6,0E0,0E0,0E0,0E0,0E0,0E0],"parents":[2147483647,0,0,1,1,2,2,3,3,4,4,6,6],"right_children":[2,4,6,8,10,-1,12,-1,-1,-1,-1,-1,-1],"split_conditions":[4.6018793E4,3.0542201E4,2.3599373E4,3.0895455E4,3.6195824E4,1.4915977E2,3.1011738E4,-4.7541504E0,9.014404E1,-9.202424E1,-1.908153E1,8.082578E1,-7.9492188E0],"split_indices":[3,1,2,3,3,0,0,0,0,0,0,0,0],"split_type":[0,0,0,0,0,0,0,0,0,0,0,0,0],"sum_hessian":[3.6E1,2.1E1,1.5E1,1E1,1.1E1,1E0,1.4E1,7E0,3E0,5E0,6E0,2E0,1.2E1],"tree_param":{"num_deleted":"0","num_feature":"7","num_nodes":"13","size_leaf_vector":"1"}},{"base_weights":[2.3374578E1,-1.4973988E2,2.5994604E2,2.3918929E2,-5.604135E2,1.4170177E2,8.83401E1,5.074237E0,1.1560528E2,-1.1100459E2,-2.1554565E1,7.543724E1,-7.2155046E0],"categories":[],"categories_nodes":[],"categories_segments":[],"categories_sizes":[],"default_left":[0,0,0,0,0,0,0,0,0,0,0,0,0],"id":78,"left_children":[1,3,5,7,9,-1,11,-1,-1,-1,-1,-1,-1],"loss_changes":[1.55422E6,3.6479502E6,3.051786E6,2.0147002E6,1.8457902E6,0E0,1.6578561E6,0E0,0E0,0E0,0E0,0E0,0E0],"parents":[2147483647,0,0,1,1,2,2,3,3,4,4,6,6],"right_children":[2,4,6,8,10,-1,12,-1,-1,-1,-1,-1,-1],"split_conditions":[4.6018793E4,3.3781543E4,2.3599373E4,6.919339E4,3.5585652E4,1.4170177E2,3.1011738E4,5.074237E0,1.1560528E2,-1.1100459E2,-2.1554565E1,7.543724E1,-7.2155046E0],"split_indices":[3,1,2,2,3,0,0,0,0,0,0,0,0],"split_type":[0,0,0,0,0,0,0,0,0,0,0,0,0],"sum_hessian":[3.6E1,2.1E1,1.5E1,1.1E1,1E1,1E0,1.4E1,1E1,1E0,3E0,7E0,2E0,1.2E1],"tree_param":{"num_deleted":"0","num_feature":"7","num_nodes":"13","size_leaf_vector":"1"}},{"base_weights":[2.6390018E1,-4.2398754E1,6.044971E2,1.2909346E2,-3.6755893E2,7.727813E1,4.982227E0,-3.3451915E-1,1.01313286E2,-6.121889E1,-2.0897462E0],"categories":[],"categories_nodes":[],"categories_segments":[],"categories_sizes":[],"default_left":[0,0,0,0,0,0,0,0,0,0,0],"id":79,"left_children":[1,3,5,7,9,-1,-1,-1,-1,-1,-1],"loss_changes":[1.4970191E6,1.9433721E6,3.3487012E5,2.6962515E6,1.0048521E6,0E0,0E0,0E0,0E0,0E0,0E0],"parents":[2147483647,0,0,1,1,2,2,3,3,4,4],"right_children":[2,4,6,8,10,-1,-1,-1,-1,-1,-1],"split_conditions":[6.928098E4,4.3476473E4,8.162352E4,3.8679766E4,5.3106207E4,7.727813E1,4.982227E0,-3.3451915E-1,1.01313286E2,-6.121889E1,-2.0897462E0],"split_indices":[3,0,0,0,3,0,0,0,0,0,0],"split_type":[0,0,0,0,0,0,0,0,0,0,0],"sum_hessian":[3.6E1,3.3E1,3E0,2.2E1,1.1E1,2E0,1E0,2E1,2E0,6E0,5E0],"tree_param":{"num_deleted":"0","num_feature":"7","num_nodes":"11","size_leaf_vector":"1"}},{"base_weights":[2.69924E1,-3.6956976E2,1.1566797E2,-1.1099609E1,-8.438301E1,7.945156E2,1.4558733E1,-2.1057423E1,9.14126E0,9.777513E1,1.224043E1,-4.809152E1,1.7154776E1],"categories":[],"categories_nodes":[],"categories_segments":[],"categories_sizes":[],"default_left":[0,0,0,0,0,0,0,0,0,0,0,0,0],"id":80,"left_children":[1,3,5,7,-1,9,11,-1,-1,-1,-1,-1,-1],"loss_changes":[1.3438661E6,1.1806911E6,2.1162035E6,1.2149204E5,0E0,3.72938E5,2.260451E6,0E0,0E0,0E0,0E0,0E0,0E0],"parents":[2147483647,0,0,1,1,2,2,3,3,5,5,6,6],"right_children":[2,4,6,8,-1,10,12,-1,-1,-1,-1,-1,-1],"split_conditions":[2.9675324E4,2.9210848E4,2.3644303E4,1.8066957E4,-8.438301E1,2.9959531E4,3.760788E4,-2.1057423E1,9.14126E0,9.777513E1,1.224043E1,-4.809152E1,1.7154776E1],"split_indices":[3,3,1,0,0,0,3,0,0,0,0,0,0],"split_type":[0,0,0,0,0,0,0,0,0,0,0,0,0],"sum_hessian":[3.6E1,6E0,3E1,4E0,2E0,3E0,2.7E1,1E0,3E0,2E0,1E0,6E0,2.1E1],"tree_param":{"num_deleted":"0","num_feature":"7","num_nodes":"13","size_leaf_vector":"1"}},{"base_weights":[2.3827229E1,-3.8981445E1,5.5174414E2,1.0184953E2,-3.8716074E2,7.098229E1,3.8753908E0,3.0251877E1,-3.6238747E1,-6.8316505E1,4.5476565E0],"categories":[],"categories_nodes":[],"categories_segments":[],"categories_sizes":[],"default_left":[0,0,0,0,0,0,0,0,0,0,0],"id":81,"left_children":[1,3,5,7,9,-1,-1,-1,-1,-1,-1],"loss_changes":[1.2483449E6,1.7066028E6,2.96863E5,2.438581E6,1.3116929E6,0E0,0E0,0E0,0E0,0E0,0E0],"parents":[2147483647,0,0,1,1,2,2,3,3,4,4],"right_children":[2,4,6,8,10,-1,-1,-1,-1,-1,-1],"split_conditions":[6.928098E4,5.5205797E4,8.162352E4,5.5205797E4,3.415447E4,7.098229E1,3.8753908E0,3.0251877E1,-3.6238747E1,-6.8316505E1,4.5476565E0],"split_indices":[3,0,0,1,2,0,0,0,0,0,0],"split_type":[0,0,0,0,0,0,0,0,0,0,0],"sum_hessian":[3.6E1,3.3E1,3E0,2.4E1,9E0,2E0,1E0,1.7E1,7E0,5E0,4E0],"tree_param":{"num_deleted":"0","num_feature":"7","num_nodes":"11","size_leaf_vector":"1"}},{"base_weights":[2.1583088E1,-3.5821793E2,1.0664838E2,-3.6573048E1,-7.748867E1,1.0344063E2,4.1242905E1,-2.151709E1,6.186914E0,5.044183E1,-7.156891E0],"categories":[],"categories_nodes":[],"categories_segments":[],"categories_sizes":[],"default_left":[0,0,0,0,0,0,0,0,0,0,0],"id":82,"left_children":[1,3,5,7,-1,-1,9,-1,-1,-1,-1],"loss_changes":[1.2335949E6,9.097959E5,1.8384316E6,1.0122026E5,0E0,0E0,1.6036502E6,0E0,0E0,0E0,0E0],"parents":[2147483647,0,0,1,1,2,2,3,3,6,6],"right_children":[2,4,6,8,-1,-1,10,-1,-1,-1,-1],"split_conditions":[2.9675324E4,2.9210848E4,2.2978814E4,1.8066957E4,-7.748867E1,1.0344063E2,2.3644303E4,-2.151709E1,6.186914E0,5.044183E1,-7.156891E0],"split_indices":[3,3,1,0,0,0,2,0,0,0,0],"split_type":[0,0,0,0,0,0,0,0,0,0,0],"sum_hessian":[3.6E1,6E0,3E1,4E0,2E0,1E0,2.9E1,1E0,3E0,5E0,2.4E1],"tree_param":{"num_deleted":"0","num_feature":"7","num_nodes":"11","size_leaf_vector":"1"}},{"base_weights":[2.0881308E1,-1.3226202E2,2.3014832E2,2.3088902E2,-4.5412866E2,1.2465859E2,7.9280075E1,-3.867993E0,7.123047E1,-8.142434E1,-1.722909E1,6.774714E1,-6.4862533E0],"categories":[],"categories_nodes":[],"categories_segments":[],"categories_sizes":[],"default_left":[0,0,0,0,0,0,0,0,0,0,0,0,0],"id":83,"left_children":[1,3,5,7,9,-1,11,-1,-1,-1,-1,-1,-1],"loss_changes":[1.2162101E6,2.67635E6,2.354741E6,1.4550738E6,1.0776402E6,0E0,1.3373152E6,0E0,0E0,0E0,0E0,0E0,0E0],"parents":[2147483647,0,0,1,1,2,2,3,3,4,4,6,6],"right_children":[2,4,6,8,10,-1,12,-1,-1,-1,-1,-1,-1],"split_conditions":[4.6018793E4,3.0542201E4,2.3599373E4,3.0895455E4,3.832078E4,1.2465859E2,3.1011738E4,-3.867993E0,7.123047E1,-8.142434E1,-1.722909E1,6.774714E1,-6.4862533E0],"split_indices":[3,1,2,3,1,0,0,0,0,0,0,0,0],"split_type":[0,0,0,0,0,0,0,0,0,0,0,0,0],"sum_hessian":[3.6E1,2.1E1,1.5E1,1E1,1.1E1,1E0,1.4E1,7E0,3E0,4E0,7E0,2E0,1.2E1],"tree_param":{"num_deleted":"0","num_feature":"7","num_nodes":"13","size_leaf_vector":"1"}},{"base_weights":[2.29716E1,-3.682663E1,5.255137E2,7.148228E1,-3.9776587E2,6.715938E1,4.363672E0,-1.6467957E1,3.8040787E1,-7.2810585E1,1.1460059E1],"categories":[],"categories_nodes":[],"categories_segments":[],"categories_sizes":[],"default_left":[0,0,0,0,0,0,0,0,0,0,0],"id":84,"left_children":[1,3,5,7,9,-1,-1,-1,-1,-1,-1],"loss_changes":[1.1312446E6,1.357593E6,2.5226438E5,2.0324691E6,1.4374825E6,0E0,0E0,0E0,0E0,0E0,0E0],"parents":[2147483647,0,0,1,1,2,2,3,3,4,4],"right_children":[2,4,6,8,10,-1,-1,-1,-1,-1,-1],"split_conditions":[6.928098E4,1E1,8.162352E4,3.86883E4,3.832078E4,6.715938E1,4.363672E0,-1.6467957E1,3.8040787E1,-7.2810585E1,1.1460059E1],"split_indices":[3,4,0,3,2,0,0,0,0,0,0],"split_type":[0,0,0,0,0,0,0,0,0,0,0],"sum_hessian":[3.6E1,3.3E1,3E0,2.6E1,7E0,2E0,1E0,1.5E1,1.1E1,4E0,3E0],"tree_param":{"num_deleted":"0","num_feature":"7","num_nodes":"11","size_leaf_vector":"1"}},{"base_weights":[2.153323E1,-3.4313217E1,4.9084473E2,1.0691402E2,-3.021393E2,6.2682293E1,4.145508E0,-5.839704E-1,8.605521E1,-5.0081223E1,-1.9997721E0],"categories":[],"categories_nodes":[],"categories_segments":[],"categories_sizes":[],"default_left":[0,0,0,0,0,0,0,0,0,0,0],"id":85,"left_children":[1,3,5,7,9,-1,-1,-1,-1,-1,-1],"loss_changes":[9.865895E5,1.3183306E6,2.1844369E5,1.959462E6,6.626315E5,0E0,0E0,0E0,0E0,0E0,0E0],"parents":[2147483647,0,0,1,1,2,2,3,3,4,4],"right_children":[2,4,6,8,10,-1,-1,-1,-1,-1,-1],"split_conditions":[6.928098E4,4.3476473E4,8.162352E4,3.8679766E4,5.3106207E4,6.2682293E1,4.145508E0,-5.839704E-1,8.605521E1,-5.0081223E1,-1.9997721E0],"split_indices":[3,0,0,0,3,0,0,0,0,0,0],"split_type":[0,0,0,0,0,0,0,0,0,0,0],"sum_hessian":[3.6E1,3.3E1,3E0,2.2E1,1.1E1,2E0,1E0,2E1,2E0,6E0,5E0],"tree_param":{"num_deleted":"0","num_feature":"7","num_nodes":"11","size_leaf_vector":"1"}},{"base_weights":[2.2088709E1,-5.2871063E1,6.8668976E1,-1.1351804E2,3.1915286E2,2.723794E1,-3.2592243E1,9.555957E1,2.0543583E1],"categories":[],"categories_nodes":[],"categories_segments":[],"categories_sizes":[],"default_left":[0,0,0,0,0,0,0,0,0],"id":86,"left_children":[1,-1,3,5,7,-1,-1,-1,-1],"loss_changes":[9.8559206E5,0E0,1.6334515E6,1.810067E6,8.8930225E5,0E0,0E0,0E0,0E0],"parents":[2147483647,0,0,2,2,3,3,4,4],"right_children":[2,-1,4,6,8,-1,-1,-1,-1],"split_conditions":[1.854249E4,-5.2871063E1,3.832078E4,2.3644303E4,2.2978814E4,2.723794E1,-3.2592243E1,9.555957E1,2.0543583E1],"split_indices":[0,0,2,2,1,0,0,0,0],"split_type":[0,0,0,0,0,0,0,0,0],"sum_hessian":[3.6E1,2E0,3.4E1,2E1,1.4E1,7E0,1.3E1,1E0,1.3E1],"tree_param":{"num_deleted":"0","num_feature":"7","num_nodes":"9","size_leaf_vector":"1"}},{"base_weights":[2.144402E1,-1.1262664E2,2.0445093E2,2.0080437E2,-4.443126E2,1.10858986E2,7.026901E1,5.4001775E0,9.078164E1,-8.771941E1,-1.7233276E1,6.113516E1,-6.00015E0],"categories":[],"categories_nodes":[],"categories_segments":[],"categories_sizes":[],"default_left":[0,0,0,0,0,0,0,0,0,0,0,0,0],"id":87,"left_children":[1,3,5,7,9,-1,11,-1,-1,-1,-1,-1,-1],"loss_changes":[9.308533E5,2.3763542E6,1.863206E6,1.1964706E6,1.1439165E6,0E0,1.0939885E6,0E0,0E0,0E0,0E0,0E0,0E0],"parents":[2147483647,0,0,1,1,2,2,3,3,4,4,6,6],"right_children":[2,4,6,8,10,-1,12,-1,-1,-1,-1,-1,-1],"split_conditions":[4.6018793E4,3.3781543E4,2.3599373E4,6.919339E4,3.5585652E4,1.10858986E2,3.1011738E4,5.4001775E0,9.078164E1,-8.771941E1,-1.7233276E1,6.113516E1,-6.00015E0],"split_indices":[3,1,2,2,3,0,0,0,0,0,0,0,0],"split_type":[0,0,0,0,0,0,0,0,0,0,0,0,0],"sum_hessian":[3.6E1,2.1E1,1.5E1,1.1E1,1E1,1E0,1.4E1,1E1,1E0,3E0,7E0,2E0,1.2E1],"tree_param":{"num_deleted":"0","num_feature":"7","num_nodes":"13","size_leaf_vector":"1"}},{"base_weights":[2.3549198E1,-2.8589958E1,4.6084473E2,1.0018631E2,-2.7302866E2,5.9305206E1,3.2111328E0,-1.2201451E1,4.0124886E1,-4.5712917E1,-1.273991E0],"categories":[],"categories_nodes":[],"categories_segments":[],"categories_sizes":[],"default_left":[0,0,0,0,0,0,0,0,0,0,0],"id":88,"left_children":[1,3,5,7,9,-1,-1,-1,-1,-1,-1],"loss_changes":[8.567837E5,1.0976024E6,2.0768319E5,1.587574E6,5.6920794E5,0E0,0E0,0E0,0E0,0E0,0E0],"parents":[2147483647,0,0,1,1,2,2,3,3,4,4],"right_children":[2,4,6,8,10,-1,-1,-1,-1,-1,-1],"split_conditions":[6.928098E4,4.3476473E4,8.162352E4,3.760788E4,5.3106207E4,5.9305206E1,3.2111328E0,-1.2201451E1,4.0124886E1,-4.5712917E1,-1.273991E0],"split_indices":[3,0,0,3,3,0,0,0,0,0,0],"split_type":[0,0,0,0,0,0,0,0,0,0,0],"sum_hessian":[3.6E1,3.3E1,3E0,2.2E1,1.1E1,2E0,1E0,1.3E1,9E0,6E0,5E0],"tree_param":{"num_deleted":"0","num_feature":"7","num_nodes":"11","size_leaf_vector":"1"}},{"base_weights":[2.2368877E1,-4.5788933E1,6.2894756E1,-9.9859E1,2.8655704E2,7.95655E0,-4.700745E1,8.685274E1,1.8295006E1],"categories":[],"categories_nodes":[],"categories_segments":[],"categories_sizes":[],"default_left":[0,0,0,0,0,0,0,0,0],"id":89,"left_children":[1,-1,3,5,7,-1,-1,-1,-1],"loss_changes":[7.489256E5,0E0,1.302681E6,1.432342E6,7.455456E5,0E0,0E0,0E0,0E0],"parents":[2147483647,0,0,2,2,3,3,4,4],"right_children":[2,-1,4,6,8,-1,-1,-1,-1],"split_conditions":[1.854249E4,-4.5788933E1,3.832078E4,3.1453393E4,2.2978814E4,7.95655E0,-4.700745E1,8.685274E1,1.8295006E1],"split_indices":[0,0,2,2,1,0,0,0,0],"split_type":[0,0,0,0,0,0,0,0,0],"sum_hessian":[3.6E1,2E0,3.4E1,2E1,1.4E1,1.4E1,6E0,1E0,1.3E1],"tree_param":{"num_deleted":"0","num_feature":"7","num_nodes":"9","size_leaf_vector":"1"}},{"base_weights":[2.068048E1,-9.76543E1,1.8209827E2,1.9547917E2,-4.085586E2,1.0291192E2,5.7022266E1,6.3231535E0,8.2510155E1,-7.810439E1,-1.7124609E1,5.534167E1,-6.191662E0],"categories":[],"categories_nodes":[],"categories_segments":[],"categories_sizes":[],"default_left":[0,0,0,0,0,0,0,0,0,0,0,0,0],"id":90,"left_children":[1,3,5,7,9,-1,11,-1,-1,-1,-1,-1,-1],"loss_changes":[7.245321E5,2.0848668E6,1.636389E6,9.470204E5,8.3859875E5,0E0,9.198746E5,0E0,0E0,0E0,0E0,0E0,0E0],"parents":[2147483647,0,0,1,1,2,2,3,3,4,4,6,6],"right_children":[2,4,6,8,10,-1,12,-1,-1,-1,-1,-1,-1],"split_conditions":[4.6018793E4,3.3781543E4,2.3599373E4,6.919339E4,3.5585652E4,1.0291192E2,3.1011738E4,6.3231535E0,8.2510155E1,-7.810439E1,-1.7124609E1,5.534167E1,-6.191662E0],"split_indices":[3,1,2,2,3,0,0,0,0,0,0,0,0],"split_type":[0,0,0,0,0,0,0,0,0,0,0,0,0],"sum_hessian":[3.6E1,2.1E1,1.5E1,1.1E1,1E1,1E0,1.4E1,1E1,1E0,3E0,7E0,2E0,1.2E1],"tree_param":{"num_deleted":"0","num_feature":"7","num_nodes":"13","size_leaf_vector":"1"}},{"base_weights":[2.2549751E1,-2.5330969E1,4.2389844E2,6.452622E1,-3.2543262E2,5.4889584E1,2.4453125E0,-1.2628574E1,2.7973032E1,-5.9147106E1,8.847363E0],"categories":[],"categories_nodes":[],"categories_segments":[],"categories_sizes":[],"default_left":[0,0,0,0,0,0,0,0,0,0,0],"id":91,"left_children":[1,3,5,7,9,-1,-1,-1,-1,-1,-1],"loss_changes":[7.2176175E5,9.378529E5,1.8629631E5,1.1440409E6,9.332495E5,0E0,0E0,0E0,0E0,0E0,0E0],"parents":[2147483647,0,0,1,1,2,2,3,3,4,4],"right_children":[2,4,6,8,10,-1,-1,-1,-1,-1,-1],"split_conditions":[6.928098E4,1E1,8.162352E4,3.760788E4,3.832078E4,5.4889584E1,2.4453125E0,-1.2628574E1,2.7973032E1,-5.9147106E1,8.847363E0],"split_indices":[3,4,0,3,2,0,0,0,0,0,0],"split_type":[0,0,0,0,0,0,0,0,0,0,0],"sum_hessian":[3.6E1,3.3E1,3E0,2.6E1,7E0,2E0,1E0,1.4E1,1.2E1,4E0,3E0],"tree_param":{"num_deleted":"0","num_feature":"7","num_nodes":"11","size_leaf_vector":"1"}},{"base_weights":[2.0899836E1,-2.3825684E1,3.958418E2,9.501923E1,-2.496263E2,5.1230206E1,2.323047E0,2.335016E1,-2.5486929E1,-4.082983E1,-2.2904623E0],"categories":[],"categories_nodes":[],"categories_segments":[],"categories_sizes":[],"default_left":[0,0,0,0,0,0,0,0,0,0,0],"id":92,"left_children":[1,3,5,7,9,-1,-1,-1,-1,-1,-1],"loss_changes":[6.299018E5,9.36118E5,1.6167662E5,1.1739405E6,4.2234062E5,0E0,0E0,0E0,0E0,0E0,0E0],"parents":[2147483647,0,0,1,1,2,2,3,3,4,4],"right_children":[2,4,6,8,10,-1,-1,-1,-1,-1,-1],"split_conditions":[6.928098E4,4.3476473E4,8.162352E4,5.5205797E4,5.3106207E4,5.1230206E1,2.323047E0,2.335016E1,-2.5486929E1,-4.082983E1,-2.2904623E0],"split_indices":[3,0,0,1,3,0,0,0,0,0,0],"split_type":[0,0,0,0,0,0,0,0,0,0,0],"sum_hessian":[3.6E1,3.3E1,3E0,2.2E1,1.1E1,2E0,1E0,1.6E1,6E0,6E0,5E0],"tree_param":{"num_deleted":"0","num_feature":"7","num_nodes":"11","size_leaf_vector":"1"}},{"base_weights":[1.9033678E1,-2.4780162E2,7.867282E1,-6.595703E0,-5.6721096E1,5.916699E2,2.5777762E0,9.738151E0,-1.0837436E1,7.3594406E1,7.942383E0,-3.365363E1,1.1036053E1],"categories":[],"categories_nodes":[],"categories_segments":[],"categories_sizes":[],"default_left":[0,0,0,0,0,0,0,0,0,0,0,0,0],"id":93,"left_children":[1,3,5,7,-1,9,11,-1,-1,-1,-1,-1,-1],"loss_changes":[6.0830694E5,5.3556275E5,1.2086074E6,6.3466957E4,0E0,2.37164E5,1.0605585E6,0E0,0E0,0E0,0E0,0E0,0E0],"parents":[2147483647,0,0,1,1,2,2,3,3,5,5,6,6],"right_children":[2,4,6,8,-1,10,12,-1,-1,-1,-1,-1,-1],"split_conditions":[2.9675324E4,2.9210848E4,2.3644303E4,3.4322938E4,-5.6721096E1,2.9959531E4,3.760788E4,9.738151E0,-1.0837436E1,7.3594406E1,7.942383E0,-3.365363E1,1.1036053E1],"split_indices":[3,3,1,2,0,0,3,0,0,0,0,0,0],"split_type":[0,0,0,0,0,0,0,0,0,0,0,0,0],"sum_hessian":[3.6E1,6E0,3E1,4E0,2E0,3E0,2.7E1,2E0,2E0,2E0,1E0,6E0,2.1E1],"tree_param":{"num_deleted":"0","num_feature":"7","num_nodes":"13","size_leaf_vector":"1"}},{"base_weights":[1.7159708E1,-2.3840218E1,3.6136914E2,8.604641E1,-2.3246956E2,4.7079166E1,1.6550782E0,-9.954893E-2,6.666576E1,-3.7263897E1,-3.0193686E0],"categories":[],"categories_nodes":[],"categories_segments":[],"categories_sizes":[],"default_left":[0,0,0,0,0,0,0,0,0,0,0],"id":94,"left_children":[1,3,5,7,9,-1,-1,-1,-1,-1,-1],"loss_changes":[5.307799E5,7.994727E5,1.4313162E5,1.163026E6,3.2898325E5,0E0,0E0,0E0,0E0,0E0,0E0],"parents":[2147483647,0,0,1,1,2,2,3,3,4,4],"right_children":[2,4,6,8,10,-1,-1,-1,-1,-1,-1],"split_conditions":[6.928098E4,4.3476473E4,8.162352E4,3.8679766E4,5.3106207E4,4.7079166E1,1.6550782E0,-9.954893E-2,6.666576E1,-3.7263897E1,-3.0193686E0],"split_indices":[3,0,0,0,3,0,0,0,0,0,0],"split_type":[0,0,0,0,0,0,0,0,0,0,0],"sum_hessian":[3.6E1,3.3E1,3E0,2.2E1,1.1E1,2E0,1E0,2E1,2E0,6E0,5E0],"tree_param":{"num_deleted":"0","num_feature":"7","num_nodes":"11","size_leaf_vector":"1"}},{"base_weights":[1.74711E1,-3.7940723E1,5.0990067E1,-6.907082E1,2.594832E2,2.2691284E1,-2.1274572E1,3.746639E1,-9.333936E0],"categories":[],"categories_nodes":[],"categories_segments":[],"categories_sizes":[],"default_left":[0,0,0,0,0,0,0,0,0],"id":95,"left_children":[1,-1,3,5,7,-1,-1,-1,-1],"loss_changes":[5.1155522E5,0E0,8.94038E5,1.0263596E6,5.6326944E5,0E0,0E0,0E0,0E0],"parents":[2147483647,0,0,2,2,3,3,4,4],"right_children":[2,-1,4,6,8,-1,-1,-1,-1],"split_conditions":[1.854249E4,-3.7940723E1,3.9724484E4,2.3644303E4,7.7907664E4,2.2691284E1,-2.1274572E1,3.746639E1,-9.333936E0],"split_indices":[0,0,2,2,2,0,0,0,0],"split_type":[0,0,0,0,0,0,0,0,0],"sum_hessian":[3.6E1,2E0,3.4E1,2.2E1,1.2E1,7E0,1.5E1,9E0,3E0],"tree_param":{"num_deleted":"0","num_feature":"7","num_nodes":"9","size_leaf_vector":"1"}},{"base_weights":[1.5497044E1,-2.2622433E2,6.9579384E1,-6.2652345E0,-5.1741474E1,5.525322E2,-1.898856E0,9.048307E0,-1.0092513E1,6.815495E1,8.274024E0,-3.0794224E1,9.55649E0],"categories":[],"categories_nodes":[],"categories_segments":[],"categories_sizes":[],"default_left":[0,0,0,0,0,0,0,0,0,0,0,0,0],"id":96,"left_children":[1,3,5,7,-1,9,11,-1,-1,-1,-1,-1,-1],"loss_changes":[4.994363E5,4.4510803E5,1.0711885E6,5.492294E4,0E0,1.860535E5,8.646164E5,0E0,0E0,0E0,0E0,0E0,0E0],"parents":[2147483647,0,0,1,1,2,2,3,3,5,5,6,6],"right_children":[2,4,6,8,-1,10,12,-1,-1,-1,-1,-1,-1],"split_conditions":[2.9675324E4,2.9210848E4,2.3644303E4,3.4322938E4,-5.1741474E1,2.9959531E4,3.760788E4,9.048307E0,-1.0092513E1,6.815495E1,8.274024E0,-3.0794224E1,9.55649E0],"split_indices":[3,3,1,2,0,0,3,0,0,0,0,0,0],"split_type":[0,0,0,0,0,0,0,0,0,0,0,0,0],"sum_hessian":[3.6E1,6E0,3E1,4E0,2E0,3E0,2.7E1,2E0,2E0,2E0,1E0,6E0,2.1E1],"tree_param":{"num_deleted":"0","num_feature":"7","num_nodes":"13","size_leaf_vector":"1"}},{"base_weights":[1.4013118E1,8.012249E1,-1.7249443E2,-4.3815517E1,4.5819586E2,-5.0926334E1,-2.4644287E1,-2.389752E1,2.1427364E1,1.1392969E1,8.7924095E1,2.1427801E1,-1.39998045E1],"categories":[],"categories_nodes":[],"categories_segments":[],"categories_sizes":[],"default_left":[0,0,0,0,0,0,0,0,0,0,0,0,0],"id":97,"left_children":[1,3,5,7,9,-1,11,-1,-1,-1,-1,-1,-1],"loss_changes":[4.700269E5,1.3320906E6,4.8536294E5,1.1593152E6,9.144894E5,0E0,2.5048316E5,0E0,0E0,0E0,0E0,0E0,0E0],"parents":[2147483647,0,0,1,1,2,2,3,3,4,4,6,6],"right_children":[2,4,6,8,10,-1,12,-1,-1,-1,-1,-1,-1],"split_conditions":[6.3133605E4,4.7507535E4,6.919339E4,3.415447E4,3.415447E4,-5.0926334E1,7.52494E4,-2.389752E1,2.1427364E1,1.1392969E1,8.7924095E1,2.1427801E1,-1.39998045E1],"split_indices":[1,3,1,2,1,0,1,0,0,0,0,0,0],"split_type":[0,0,0,0,0,0,0,0,0,0,0,0,0],"sum_hessian":[3.6E1,2.7E1,9E0,2.1E1,6E0,2E0,7E0,1.2E1,9E0,4E0,2E0,2E0,5E0],"tree_param":{"num_deleted":"0","num_feature":"7","num_nodes":"13","size_leaf_vector":"1"}},{"base_weights":[1.4054318E1,2.2360376E2,-4.229401E1,-6.382259E1,7.239219E1,4.122163E2,-1.0806243E2,-1.5872901E1,8.399349E0,-1.3097168E1,6.3693623E1,-3.4652523E1,3.0420358E0],"categories":[],"categories_nodes":[],"categories_segments":[],"categories_sizes":[],"default_left":[0,0,0,0,0,0,0,0,0,0,0,0,0],"id":98,"left_children":[1,3,5,7,-1,9,11,-1,-1,-1,-1,-1,-1],"loss_changes":[4.4634425E5,1.1966395E6,9.413178E5,9.750437E4,0E0,5.716811E5,9.0216206E5,0E0,0E0,0E0,0E0,0E0,0E0],"parents":[2147483647,0,0,1,1,2,2,3,3,5,5,6,6],"right_children":[2,4,6,8,-1,10,12,-1,-1,-1,-1,-1,-1],"split_conditions":[2.3644303E4,2.2978814E4,2.3644303E4,1.8066957E4,7.239219E1,1.8066957E4,3.415447E4,-1.5872901E1,8.399349E0,-1.3097168E1,6.3693623E1,-3.4652523E1,3.0420358E0],"split_indices":[2,2,1,2,0,0,2,0,0,0,0,0,0],"split_type":[0,0,0,0,0,0,0,0,0,0,0,0,0],"sum_hessian":[3.6E1,7E0,2.9E1,5E0,2E0,3E0,2.6E1,3E0,2E0,1E0,2E0,9E0,1.7E1],"tree_param":{"num_deleted":"0","num_feature":"7","num_nodes":"13","size_leaf_vector":"1"}},{"base_weights":[1.4917045E1,-7.506725E1,1.3771313E2,1.6481364E2,-3.2993118E2,8.168711E1,3.7977863E1,6.227575E0,6.463653E1,-6.104551E1,-1.4842786E1,4.5027603E1,-6.008924E0],"categories":[],"categories_nodes":[],"categories_segments":[],"categories_sizes":[],"default_left":[0,0,0,0,0,0,0,0,0,0,0,0,0],"id":99,"left_children":[1,3,5,7,9,-1,11,-1,-1,-1,-1,-1,-1],"loss_changes":[4.1917738E5,1.399391E6,1.052753E6,5.5227456E5,4.6946775E5,0E0,6.335501E5,0E0,0E0,0E0,0E0,0E0,0E0],"parents":[2147483647,0,0,1,1,2,2,3,3,4,4,6,6],"right_children":[2,4,6,8,10,-1,12,-1,-1,-1,-1,-1,-1],"split_conditions":[4.6018793E4,3.3781543E4,2.3599373E4,6.919339E4,3.832078E4,8.168711E1,3.1011738E4,6.227575E0,6.463653E1,-6.104551E1,-1.4842786E1,4.5027603E1,-6.008924E0],"split_indices":[3,1,2,2,1,0,0,0,0,0,0,0,0],"split_type":[0,0,0,0,0,0,0,0,0,0,0,0,0],"sum_hessian":[3.6E1,2.1E1,1.5E1,1.1E1,1E1,1E0,1.4E1,1E1,1E0,3E0,7E0,2E0,1.2E1],"tree_param":{"num_deleted":"0","num_feature":"7","num_nodes":"13","size_leaf_vector":"1"}}]},"name":"gbtree"},"learner_model_param":{"base_score":"[4.410595E4]","boost_from_average":"1","num_class":"0","num_feature":"7","num_target":"1"},"objective":{"name":"reg:squarederror","reg_loss_param":{"scale_pos_weight":"1"}}},"version":[3,3,0]}